<?xml version="1.0" encoding="UTF-8"?>
<PMML xmlns="http://www.dmg.org/PMML-4_3" version="4.3Ext">
    <Header copyright="Copyright (c) 2018 Software AG" description="Default description">
        <Timestamp>2018-11-24 13:31:04.565779</Timestamp>
    </Header>
    <MiningBuildTask>
        <Extension value="Pipeline(memory=None,
    steps=[('model',GradientBoostingRegressor(alpha=0.9, criterion='friedman_mse', init=None,
             learning_rate=0.1, loss='ls', max_depth=3,
             max_features='auto', max_leaf_nodes=None,
             min_impurity_decrease=0.0, min_impurity_split=None,
             min_samples_leaf=1, min_samples_split=5,
             min_weight_fraction_leaf=0.0, n_estimators=50,
             n_iter_no_change=None, presort='auto', random_state=42,
             subsample=1.0, tol=0.0001, validation_fraction=0.1, verbose=0,
             warm_start=False))])">
            
        </Extension>
    </MiningBuildTask>
    <DataDictionary numberOfFields="25">
        <DataField name="x1" optype="continuous" dataType="double"/>
        <DataField name="x2" optype="continuous" dataType="double"/>
        <DataField name="x3" optype="continuous" dataType="double"/>
        <DataField name="x4" optype="continuous" dataType="double"/>
        <DataField name="x5" optype="continuous" dataType="double"/>
        <DataField name="x6" optype="continuous" dataType="double"/>
        <DataField name="x7" optype="continuous" dataType="double"/>
        <DataField name="x8" optype="continuous" dataType="double"/>
        <DataField name="x9" optype="continuous" dataType="double"/>
        <DataField name="x10" optype="continuous" dataType="double"/>
        <DataField name="x11" optype="continuous" dataType="double"/>
        <DataField name="x12" optype="continuous" dataType="double"/>
        <DataField name="x13" optype="continuous" dataType="double"/>
        <DataField name="x14" optype="continuous" dataType="double"/>
        <DataField name="x15" optype="continuous" dataType="double"/>
        <DataField name="x16" optype="continuous" dataType="double"/>
        <DataField name="x17" optype="continuous" dataType="double"/>
        <DataField name="x18" optype="continuous" dataType="double"/>
        <DataField name="x19" optype="continuous" dataType="double"/>
        <DataField name="x20" optype="continuous" dataType="double"/>
        <DataField name="x21" optype="continuous" dataType="double"/>
        <DataField name="x22" optype="continuous" dataType="double"/>
        <DataField name="x23" optype="continuous" dataType="double"/>
        <DataField name="x24" optype="continuous" dataType="double"/>
        <DataField name="BatteryDropTime" optype="continuous" dataType="double"/>
    </DataDictionary>
    <MiningModel functionName="regression">
        <MiningSchema>
            <MiningField name="x1" usageType="active" optype="continuous"/>
            <MiningField name="x2" usageType="active" optype="continuous"/>
            <MiningField name="x3" usageType="active" optype="continuous"/>
            <MiningField name="x4" usageType="active" optype="continuous"/>
            <MiningField name="x5" usageType="active" optype="continuous"/>
            <MiningField name="x6" usageType="active" optype="continuous"/>
            <MiningField name="x7" usageType="active" optype="continuous"/>
            <MiningField name="x8" usageType="active" optype="continuous"/>
            <MiningField name="x9" usageType="active" optype="continuous"/>
            <MiningField name="x10" usageType="active" optype="continuous"/>
            <MiningField name="x11" usageType="active" optype="continuous"/>
            <MiningField name="x12" usageType="active" optype="continuous"/>
            <MiningField name="x13" usageType="active" optype="continuous"/>
            <MiningField name="x14" usageType="active" optype="continuous"/>
            <MiningField name="x15" usageType="active" optype="continuous"/>
            <MiningField name="x16" usageType="active" optype="continuous"/>
            <MiningField name="x17" usageType="active" optype="continuous"/>
            <MiningField name="x18" usageType="active" optype="continuous"/>
            <MiningField name="x19" usageType="active" optype="continuous"/>
            <MiningField name="x20" usageType="active" optype="continuous"/>
            <MiningField name="x21" usageType="active" optype="continuous"/>
            <MiningField name="x22" usageType="active" optype="continuous"/>
            <MiningField name="x23" usageType="active" optype="continuous"/>
            <MiningField name="x24" usageType="active" optype="continuous"/>
            <MiningField name="BatteryDropTime" usageType="target" optype="continuous"/>
        </MiningSchema>
        <Output>
            <OutputField name="predicted" optype="continuous" dataType="double" feature="predictedValue"/>
        </Output>
        <Targets>
            <Target field="BatteryDropTime" rescaleConstant="1.311200e+02" rescaleFactor="1.000000e-01"/>
        </Targets>
        <Segmentation multipleModelMethod="sum">
            <Segment id="0" weight="1">
                <True/>
                <TreeModel modelName="decisionTree_Model" functionName="regression" missingValuePenalty="1.0">
                    <MiningSchema>
                        <MiningField name="x1" usageType="active"/>
                        <MiningField name="x2" usageType="active"/>
                        <MiningField name="x3" usageType="active"/>
                        <MiningField name="x4" usageType="active"/>
                        <MiningField name="x5" usageType="active"/>
                        <MiningField name="x6" usageType="active"/>
                        <MiningField name="x7" usageType="active"/>
                        <MiningField name="x8" usageType="active"/>
                        <MiningField name="x9" usageType="active"/>
                        <MiningField name="x10" usageType="active"/>
                        <MiningField name="x11" usageType="active"/>
                        <MiningField name="x12" usageType="active"/>
                        <MiningField name="x13" usageType="active"/>
                        <MiningField name="x14" usageType="active"/>
                        <MiningField name="x15" usageType="active"/>
                        <MiningField name="x16" usageType="active"/>
                        <MiningField name="x17" usageType="active"/>
                        <MiningField name="x18" usageType="active"/>
                        <MiningField name="x19" usageType="active"/>
                        <MiningField name="x20" usageType="active"/>
                        <MiningField name="x21" usageType="active"/>
                        <MiningField name="x22" usageType="active"/>
                        <MiningField name="x23" usageType="active"/>
                        <MiningField name="x24" usageType="active"/>
                    </MiningSchema>
                    <Node id="0" recordCount="75.0">
                        <True/>
                        <Node id="1" recordCount="17.0">
                            <SimplePredicate field="x1" operator="lessOrEqual" value="-0.8825452327728271"/>
                            <Node id="2" recordCount="9.0">
                                <SimplePredicate field="x1" operator="lessOrEqual" value="-1.3807830810546875"/>
                                <Node id="3" score="-102.2449951171875" recordCount="8.0">
                                    <SimplePredicate field="x2" operator="lessOrEqual" value="-0.037271223962306976"/>
                                </Node>
                                <Node id="4" score="-106.1199951171875" recordCount="1.0">
                                    <SimplePredicate field="x2" operator="greaterThan" value="-0.037271223962306976"/>
                                </Node>
                            </Node>
                            <Node id="5" recordCount="8.0">
                                <SimplePredicate field="x1" operator="greaterThan" value="-1.3807830810546875"/>
                                <Node id="6" score="-81.1199951171875" recordCount="6.0">
                                    <SimplePredicate field="x4" operator="lessOrEqual" value="-0.7373429834842682"/>
                                </Node>
                                <Node id="7" score="-56.1199951171875" recordCount="2.0">
                                    <SimplePredicate field="x4" operator="greaterThan" value="-0.7373429834842682"/>
                                </Node>
                            </Node>
                        </Node>
                        <Node id="8" recordCount="58.0">
                            <SimplePredicate field="x1" operator="greaterThan" value="-0.8825452327728271"/>
                            <Node id="9" recordCount="32.0">
                                <SimplePredicate field="x1" operator="lessOrEqual" value="0.5623444318771362"/>
                                <Node id="10" score="-15.73110622829861" recordCount="18.0">
                                    <SimplePredicate field="x1" operator="lessOrEqual" value="-0.135188527405262"/>
                                </Node>
                                <Node id="11" score="19.808576311383927" recordCount="14.0">
                                    <SimplePredicate field="x1" operator="greaterThan" value="-0.135188527405262"/>
                                </Node>
                            </Node>
                            <Node id="12" recordCount="26.0">
                                <SimplePredicate field="x1" operator="greaterThan" value="0.5623444318771362"/>
                                <Node id="13" score="48.5050048828125" recordCount="16.0">
                                    <SimplePredicate field="x1" operator="lessOrEqual" value="1.2100536227226257"/>
                                </Node>
                                <Node id="14" score="75.2800048828125" recordCount="10.0">
                                    <SimplePredicate field="x1" operator="greaterThan" value="1.2100536227226257"/>
                                </Node>
                            </Node>
                        </Node>
                    </Node>
                </TreeModel>
            </Segment>
            <Segment id="1" weight="1">
                <True/>
                <TreeModel modelName="decisionTree_Model" functionName="regression" missingValuePenalty="1.0">
                    <MiningSchema>
                        <MiningField name="x1" usageType="active"/>
                        <MiningField name="x2" usageType="active"/>
                        <MiningField name="x3" usageType="active"/>
                        <MiningField name="x4" usageType="active"/>
                        <MiningField name="x5" usageType="active"/>
                        <MiningField name="x6" usageType="active"/>
                        <MiningField name="x7" usageType="active"/>
                        <MiningField name="x8" usageType="active"/>
                        <MiningField name="x9" usageType="active"/>
                        <MiningField name="x10" usageType="active"/>
                        <MiningField name="x11" usageType="active"/>
                        <MiningField name="x12" usageType="active"/>
                        <MiningField name="x13" usageType="active"/>
                        <MiningField name="x14" usageType="active"/>
                        <MiningField name="x15" usageType="active"/>
                        <MiningField name="x16" usageType="active"/>
                        <MiningField name="x17" usageType="active"/>
                        <MiningField name="x18" usageType="active"/>
                        <MiningField name="x19" usageType="active"/>
                        <MiningField name="x20" usageType="active"/>
                        <MiningField name="x21" usageType="active"/>
                        <MiningField name="x22" usageType="active"/>
                        <MiningField name="x23" usageType="active"/>
                        <MiningField name="x24" usageType="active"/>
                    </MiningSchema>
                    <Node id="0" recordCount="75.0">
                        <True/>
                        <Node id="1" recordCount="17.0">
                            <SimplePredicate field="x1" operator="lessOrEqual" value="-0.8825452327728271"/>
                            <Node id="2" recordCount="9.0">
                                <SimplePredicate field="x1" operator="lessOrEqual" value="-1.3807830810546875"/>
                                <Node id="3" score="-92.02049560546877" recordCount="8.0">
                                    <SimplePredicate field="x2" operator="lessOrEqual" value="-0.037271223962306976"/>
                                </Node>
                                <Node id="4" score="-95.50799560546875" recordCount="1.0">
                                    <SimplePredicate field="x2" operator="greaterThan" value="-0.037271223962306976"/>
                                </Node>
                            </Node>
                            <Node id="5" recordCount="8.0">
                                <SimplePredicate field="x1" operator="greaterThan" value="-1.3807830810546875"/>
                                <Node id="6" score="-63.43656703404018" recordCount="7.0">
                                    <SimplePredicate field="x7" operator="lessOrEqual" value="0.1584770753979683"/>
                                </Node>
                                <Node id="7" score="-95.00799560546875" recordCount="1.0">
                                    <SimplePredicate field="x7" operator="greaterThan" value="0.1584770753979683"/>
                                </Node>
                            </Node>
                        </Node>
                        <Node id="8" recordCount="58.0">
                            <SimplePredicate field="x1" operator="greaterThan" value="-0.8825452327728271"/>
                            <Node id="9" recordCount="32.0">
                                <SimplePredicate field="x1" operator="lessOrEqual" value="0.5623444318771362"/>
                                <Node id="10" score="-14.157995605468752" recordCount="18.0">
                                    <SimplePredicate field="x1" operator="lessOrEqual" value="-0.135188527405262"/>
                                </Node>
                                <Node id="11" score="17.82771868024552" recordCount="14.0">
                                    <SimplePredicate field="x1" operator="greaterThan" value="-0.135188527405262"/>
                                </Node>
                            </Node>
                            <Node id="12" recordCount="26.0">
                                <SimplePredicate field="x1" operator="greaterThan" value="0.5623444318771362"/>
                                <Node id="13" score="43.65450439453126" recordCount="16.0">
                                    <SimplePredicate field="x1" operator="lessOrEqual" value="1.2100536227226257"/>
                                </Node>
                                <Node id="14" score="67.75200439453127" recordCount="10.0">
                                    <SimplePredicate field="x1" operator="greaterThan" value="1.2100536227226257"/>
                                </Node>
                            </Node>
                        </Node>
                    </Node>
                </TreeModel>
            </Segment>
            <Segment id="2" weight="1">
                <True/>
                <TreeModel modelName="decisionTree_Model" functionName="regression" missingValuePenalty="1.0">
                    <MiningSchema>
                        <MiningField name="x1" usageType="active"/>
                        <MiningField name="x2" usageType="active"/>
                        <MiningField name="x3" usageType="active"/>
                        <MiningField name="x4" usageType="active"/>
                        <MiningField name="x5" usageType="active"/>
                        <MiningField name="x6" usageType="active"/>
                        <MiningField name="x7" usageType="active"/>
                        <MiningField name="x8" usageType="active"/>
                        <MiningField name="x9" usageType="active"/>
                        <MiningField name="x10" usageType="active"/>
                        <MiningField name="x11" usageType="active"/>
                        <MiningField name="x12" usageType="active"/>
                        <MiningField name="x13" usageType="active"/>
                        <MiningField name="x14" usageType="active"/>
                        <MiningField name="x15" usageType="active"/>
                        <MiningField name="x16" usageType="active"/>
                        <MiningField name="x17" usageType="active"/>
                        <MiningField name="x18" usageType="active"/>
                        <MiningField name="x19" usageType="active"/>
                        <MiningField name="x20" usageType="active"/>
                        <MiningField name="x21" usageType="active"/>
                        <MiningField name="x22" usageType="active"/>
                        <MiningField name="x23" usageType="active"/>
                        <MiningField name="x24" usageType="active"/>
                    </MiningSchema>
                    <Node id="0" recordCount="75.0">
                        <True/>
                        <Node id="1" recordCount="31.0">
                            <SimplePredicate field="x1" operator="lessOrEqual" value="-0.3843074291944504"/>
                            <Node id="2" recordCount="17.0">
                                <SimplePredicate field="x1" operator="lessOrEqual" value="-0.8825452327728271"/>
                                <Node id="3" score="-78.96192131964715" recordCount="13.0">
                                    <SimplePredicate field="x1" operator="lessOrEqual" value="-1.2063998579978943"/>
                                </Node>
                                <Node id="4" score="-51.78933890206473" recordCount="4.0">
                                    <SimplePredicate field="x1" operator="greaterThan" value="-1.2063998579978943"/>
                                </Node>
                            </Node>
                            <Node id="5" recordCount="14.0">
                                <SimplePredicate field="x1" operator="greaterThan" value="-0.8825452327728271"/>
                                <Node id="6" score="-31.63108493381077" recordCount="4.0">
                                    <SimplePredicate field="x9" operator="lessOrEqual" value="-0.6619942933320999"/>
                                </Node>
                                <Node id="7" score="-9.43108493381077" recordCount="10.0">
                                    <SimplePredicate field="x9" operator="greaterThan" value="-0.6619942933320999"/>
                                </Node>
                            </Node>
                        </Node>
                        <Node id="8" recordCount="44.0">
                            <SimplePredicate field="x1" operator="greaterThan" value="-0.3843074291944504"/>
                            <Node id="9" recordCount="18.0">
                                <SimplePredicate field="x1" operator="lessOrEqual" value="0.5623444318771362"/>
                                <Node id="10" score="10.058149426600055" recordCount="17.0">
                                    <SimplePredicate field="x3" operator="lessOrEqual" value="2.10042005777359"/>
                                </Node>
                                <Node id="11" score="45.11637538364954" recordCount="1.0">
                                    <SimplePredicate field="x3" operator="greaterThan" value="2.10042005777359"/>
                                </Node>
                            </Node>
                            <Node id="12" recordCount="26.0">
                                <SimplePredicate field="x1" operator="greaterThan" value="0.5623444318771362"/>
                                <Node id="13" score="39.2890539550781" recordCount="16.0">
                                    <SimplePredicate field="x1" operator="lessOrEqual" value="1.2100536227226257"/>
                                </Node>
                                <Node id="14" score="60.976803955078154" recordCount="10.0">
                                    <SimplePredicate field="x1" operator="greaterThan" value="1.2100536227226257"/>
                                </Node>
                            </Node>
                        </Node>
                    </Node>
                </TreeModel>
            </Segment>
            <Segment id="3" weight="1">
                <True/>
                <TreeModel modelName="decisionTree_Model" functionName="regression" missingValuePenalty="1.0">
                    <MiningSchema>
                        <MiningField name="x1" usageType="active"/>
                        <MiningField name="x2" usageType="active"/>
                        <MiningField name="x3" usageType="active"/>
                        <MiningField name="x4" usageType="active"/>
                        <MiningField name="x5" usageType="active"/>
                        <MiningField name="x6" usageType="active"/>
                        <MiningField name="x7" usageType="active"/>
                        <MiningField name="x8" usageType="active"/>
                        <MiningField name="x9" usageType="active"/>
                        <MiningField name="x10" usageType="active"/>
                        <MiningField name="x11" usageType="active"/>
                        <MiningField name="x12" usageType="active"/>
                        <MiningField name="x13" usageType="active"/>
                        <MiningField name="x14" usageType="active"/>
                        <MiningField name="x15" usageType="active"/>
                        <MiningField name="x16" usageType="active"/>
                        <MiningField name="x17" usageType="active"/>
                        <MiningField name="x18" usageType="active"/>
                        <MiningField name="x19" usageType="active"/>
                        <MiningField name="x20" usageType="active"/>
                        <MiningField name="x21" usageType="active"/>
                        <MiningField name="x22" usageType="active"/>
                        <MiningField name="x23" usageType="active"/>
                        <MiningField name="x24" usageType="active"/>
                    </MiningSchema>
                    <Node id="0" recordCount="75.0">
                        <True/>
                        <Node id="1" recordCount="31.0">
                            <SimplePredicate field="x1" operator="lessOrEqual" value="-0.3843074291944504"/>
                            <Node id="2" recordCount="17.0">
                                <SimplePredicate field="x1" operator="lessOrEqual" value="-0.8825452327728271"/>
                                <Node id="3" score="-75.27100391295716" recordCount="9.0">
                                    <SimplePredicate field="x1" operator="lessOrEqual" value="-1.3807830810546875"/>
                                </Node>
                                <Node id="4" score="-54.107133033836284" recordCount="8.0">
                                    <SimplePredicate field="x1" operator="greaterThan" value="-1.3807830810546875"/>
                                </Node>
                            </Node>
                            <Node id="5" recordCount="14.0">
                                <SimplePredicate field="x1" operator="greaterThan" value="-0.8825452327728271"/>
                                <Node id="6" score="-28.467976440429695" recordCount="4.0">
                                    <SimplePredicate field="x9" operator="lessOrEqual" value="-0.6619942933320999"/>
                                </Node>
                                <Node id="7" score="-8.487976440429694" recordCount="10.0">
                                    <SimplePredicate field="x9" operator="greaterThan" value="-0.6619942933320999"/>
                                </Node>
                            </Node>
                        </Node>
                        <Node id="8" recordCount="44.0">
                            <SimplePredicate field="x1" operator="greaterThan" value="-0.3843074291944504"/>
                            <Node id="9" recordCount="20.0">
                                <SimplePredicate field="x1" operator="lessOrEqual" value="0.7118157744407654"/>
                                <Node id="10" score="-3.1368998764707783" recordCount="4.0">
                                    <SimplePredicate field="x1" operator="lessOrEqual" value="-0.135188527405262"/>
                                </Node>
                                <Node id="11" score="16.28202004358057" recordCount="16.0">
                                    <SimplePredicate field="x1" operator="greaterThan" value="-0.135188527405262"/>
                                </Node>
                            </Node>
                            <Node id="12" recordCount="24.0">
                                <SimplePredicate field="x1" operator="greaterThan" value="0.7118157744407654"/>
                                <Node id="13" score="40.008341059570334" recordCount="20.0">
                                    <SimplePredicate field="x1" operator="lessOrEqual" value="1.5588200688362122"/>
                                </Node>
                                <Node id="14" score="65.22912355957033" recordCount="4.0">
                                    <SimplePredicate field="x1" operator="greaterThan" value="1.5588200688362122"/>
                                </Node>
                            </Node>
                        </Node>
                    </Node>
                </TreeModel>
            </Segment>
            <Segment id="4" weight="1">
                <True/>
                <TreeModel modelName="decisionTree_Model" functionName="regression" missingValuePenalty="1.0">
                    <MiningSchema>
                        <MiningField name="x1" usageType="active"/>
                        <MiningField name="x2" usageType="active"/>
                        <MiningField name="x3" usageType="active"/>
                        <MiningField name="x4" usageType="active"/>
                        <MiningField name="x5" usageType="active"/>
                        <MiningField name="x6" usageType="active"/>
                        <MiningField name="x7" usageType="active"/>
                        <MiningField name="x8" usageType="active"/>
                        <MiningField name="x9" usageType="active"/>
                        <MiningField name="x10" usageType="active"/>
                        <MiningField name="x11" usageType="active"/>
                        <MiningField name="x12" usageType="active"/>
                        <MiningField name="x13" usageType="active"/>
                        <MiningField name="x14" usageType="active"/>
                        <MiningField name="x15" usageType="active"/>
                        <MiningField name="x16" usageType="active"/>
                        <MiningField name="x17" usageType="active"/>
                        <MiningField name="x18" usageType="active"/>
                        <MiningField name="x19" usageType="active"/>
                        <MiningField name="x20" usageType="active"/>
                        <MiningField name="x21" usageType="active"/>
                        <MiningField name="x22" usageType="active"/>
                        <MiningField name="x23" usageType="active"/>
                        <MiningField name="x24" usageType="active"/>
                    </MiningSchema>
                    <Node id="0" recordCount="75.0">
                        <True/>
                        <Node id="1" recordCount="31.0">
                            <SimplePredicate field="x1" operator="lessOrEqual" value="-0.3843074291944504"/>
                            <Node id="2" recordCount="17.0">
                                <SimplePredicate field="x1" operator="lessOrEqual" value="-0.8825452327728271"/>
                                <Node id="3" score="-64.1898248234366" recordCount="13.0">
                                    <SimplePredicate field="x1" operator="lessOrEqual" value="-1.2063998579978943"/>
                                </Node>
                                <Node id="4" score="-41.19969170847463" recordCount="4.0">
                                    <SimplePredicate field="x1" operator="greaterThan" value="-1.2063998579978943"/>
                                </Node>
                            </Node>
                            <Node id="5" recordCount="14.0">
                                <SimplePredicate field="x1" operator="greaterThan" value="-0.8825452327728271"/>
                                <Node id="6" score="-9.386178796386721" recordCount="12.0">
                                    <SimplePredicate field="x12" operator="lessOrEqual" value="0.8363327085971832"/>
                                </Node>
                                <Node id="7" score="-33.12117879638673" recordCount="2.0">
                                    <SimplePredicate field="x12" operator="greaterThan" value="0.8363327085971832"/>
                                </Node>
                            </Node>
                        </Node>
                        <Node id="8" recordCount="44.0">
                            <SimplePredicate field="x1" operator="greaterThan" value="-0.3843074291944504"/>
                            <Node id="9" recordCount="18.0">
                                <SimplePredicate field="x1" operator="lessOrEqual" value="0.5623444318771362"/>
                                <Node id="10" score="12.162548483718016" recordCount="16.0">
                                    <SimplePredicate field="x12" operator="lessOrEqual" value="0.8363327085971832"/>
                                </Node>
                                <Node id="11" score="-10.823209888823698" recordCount="2.0">
                                    <SimplePredicate field="x12" operator="greaterThan" value="0.8363327085971832"/>
                                </Node>
                            </Node>
                            <Node id="12" recordCount="26.0">
                                <SimplePredicate field="x1" operator="greaterThan" value="0.5623444318771362"/>
                                <Node id="13" score="31.655893466313138" recordCount="16.0">
                                    <SimplePredicate field="x1" operator="lessOrEqual" value="1.2100536227226257"/>
                                </Node>
                                <Node id="14" score="49.86945815361329" recordCount="10.0">
                                    <SimplePredicate field="x1" operator="greaterThan" value="1.2100536227226257"/>
                                </Node>
                            </Node>
                        </Node>
                    </Node>
                </TreeModel>
            </Segment>
            <Segment id="5" weight="1">
                <True/>
                <TreeModel modelName="decisionTree_Model" functionName="regression" missingValuePenalty="1.0">
                    <MiningSchema>
                        <MiningField name="x1" usageType="active"/>
                        <MiningField name="x2" usageType="active"/>
                        <MiningField name="x3" usageType="active"/>
                        <MiningField name="x4" usageType="active"/>
                        <MiningField name="x5" usageType="active"/>
                        <MiningField name="x6" usageType="active"/>
                        <MiningField name="x7" usageType="active"/>
                        <MiningField name="x8" usageType="active"/>
                        <MiningField name="x9" usageType="active"/>
                        <MiningField name="x10" usageType="active"/>
                        <MiningField name="x11" usageType="active"/>
                        <MiningField name="x12" usageType="active"/>
                        <MiningField name="x13" usageType="active"/>
                        <MiningField name="x14" usageType="active"/>
                        <MiningField name="x15" usageType="active"/>
                        <MiningField name="x16" usageType="active"/>
                        <MiningField name="x17" usageType="active"/>
                        <MiningField name="x18" usageType="active"/>
                        <MiningField name="x19" usageType="active"/>
                        <MiningField name="x20" usageType="active"/>
                        <MiningField name="x21" usageType="active"/>
                        <MiningField name="x22" usageType="active"/>
                        <MiningField name="x23" usageType="active"/>
                        <MiningField name="x24" usageType="active"/>
                    </MiningSchema>
                    <Node id="0" recordCount="75.0">
                        <True/>
                        <Node id="1" recordCount="31.0">
                            <SimplePredicate field="x1" operator="lessOrEqual" value="-0.3843074291944504"/>
                            <Node id="2" recordCount="17.0">
                                <SimplePredicate field="x1" operator="lessOrEqual" value="-0.8825452327728271"/>
                                <Node id="3" score="-61.32492103931778" recordCount="9.0">
                                    <SimplePredicate field="x1" operator="lessOrEqual" value="-1.3807830810546875"/>
                                </Node>
                                <Node id="4" score="-43.42694390385708" recordCount="8.0">
                                    <SimplePredicate field="x1" operator="greaterThan" value="-1.3807830810546875"/>
                                </Node>
                            </Node>
                            <Node id="5" recordCount="14.0">
                                <SimplePredicate field="x1" operator="greaterThan" value="-0.8825452327728271"/>
                                <Node id="6" score="-23.495810916748056" recordCount="4.0">
                                    <SimplePredicate field="x9" operator="lessOrEqual" value="-0.6619942933320999"/>
                                </Node>
                                <Node id="7" score="-6.700560916748048" recordCount="10.0">
                                    <SimplePredicate field="x9" operator="greaterThan" value="-0.6619942933320999"/>
                                </Node>
                            </Node>
                        </Node>
                        <Node id="8" recordCount="44.0">
                            <SimplePredicate field="x1" operator="greaterThan" value="-0.3843074291944504"/>
                            <Node id="9" recordCount="20.0">
                                <SimplePredicate field="x1" operator="lessOrEqual" value="0.7118157744407654"/>
                                <Node id="10" score="-2.8901768185684062" recordCount="4.0">
                                    <SimplePredicate field="x1" operator="lessOrEqual" value="-0.135188527405262"/>
                                </Node>
                                <Node id="11" score="13.19389637856828" recordCount="16.0">
                                    <SimplePredicate field="x1" operator="greaterThan" value="-0.135188527405262"/>
                                </Node>
                            </Node>
                            <Node id="12" recordCount="24.0">
                                <SimplePredicate field="x1" operator="greaterThan" value="0.7118157744407654"/>
                                <Node id="13" score="32.16940675386295" recordCount="20.0">
                                    <SimplePredicate field="x10" operator="lessOrEqual" value="1.6121625900268555"/>
                                </Node>
                                <Node id="14" score="54.34978495075195" recordCount="4.0">
                                    <SimplePredicate field="x10" operator="greaterThan" value="1.6121625900268555"/>
                                </Node>
                            </Node>
                        </Node>
                    </Node>
                </TreeModel>
            </Segment>
            <Segment id="6" weight="1">
                <True/>
                <TreeModel modelName="decisionTree_Model" functionName="regression" missingValuePenalty="1.0">
                    <MiningSchema>
                        <MiningField name="x1" usageType="active"/>
                        <MiningField name="x2" usageType="active"/>
                        <MiningField name="x3" usageType="active"/>
                        <MiningField name="x4" usageType="active"/>
                        <MiningField name="x5" usageType="active"/>
                        <MiningField name="x6" usageType="active"/>
                        <MiningField name="x7" usageType="active"/>
                        <MiningField name="x8" usageType="active"/>
                        <MiningField name="x9" usageType="active"/>
                        <MiningField name="x10" usageType="active"/>
                        <MiningField name="x11" usageType="active"/>
                        <MiningField name="x12" usageType="active"/>
                        <MiningField name="x13" usageType="active"/>
                        <MiningField name="x14" usageType="active"/>
                        <MiningField name="x15" usageType="active"/>
                        <MiningField name="x16" usageType="active"/>
                        <MiningField name="x17" usageType="active"/>
                        <MiningField name="x18" usageType="active"/>
                        <MiningField name="x19" usageType="active"/>
                        <MiningField name="x20" usageType="active"/>
                        <MiningField name="x21" usageType="active"/>
                        <MiningField name="x22" usageType="active"/>
                        <MiningField name="x23" usageType="active"/>
                        <MiningField name="x24" usageType="active"/>
                    </MiningSchema>
                    <Node id="0" recordCount="75.0">
                        <True/>
                        <Node id="1" recordCount="31.0">
                            <SimplePredicate field="x1" operator="lessOrEqual" value="-0.3843074291944504"/>
                            <Node id="2" recordCount="17.0">
                                <SimplePredicate field="x1" operator="lessOrEqual" value="-0.8825452327728271"/>
                                <Node id="3" score="-52.18905722594456" recordCount="13.0">
                                    <SimplePredicate field="x1" operator="lessOrEqual" value="-1.2063998579978943"/>
                                </Node>
                                <Node id="4" score="-32.73702814724146" recordCount="4.0">
                                    <SimplePredicate field="x1" operator="greaterThan" value="-1.2063998579978943"/>
                                </Node>
                            </Node>
                            <Node id="5" recordCount="14.0">
                                <SimplePredicate field="x1" operator="greaterThan" value="-0.8825452327728271"/>
                                <Node id="6" score="-7.4975839917399085" recordCount="12.0">
                                    <SimplePredicate field="x12" operator="lessOrEqual" value="0.8363327085971832"/>
                                </Node>
                                <Node id="7" score="-27.459479825073245" recordCount="2.0">
                                    <SimplePredicate field="x12" operator="greaterThan" value="0.8363327085971832"/>
                                </Node>
                            </Node>
                        </Node>
                        <Node id="8" recordCount="44.0">
                            <SimplePredicate field="x1" operator="greaterThan" value="-0.3843074291944504"/>
                            <Node id="9" recordCount="18.0">
                                <SimplePredicate field="x1" operator="lessOrEqual" value="0.5623444318771362"/>
                                <Node id="10" score="5.994273224022991" recordCount="17.0">
                                    <SimplePredicate field="x3" operator="lessOrEqual" value="2.10042005777359"/>
                                </Node>
                                <Node id="11" score="36.4408913546979" recordCount="1.0">
                                    <SimplePredicate field="x3" operator="greaterThan" value="2.10042005777359"/>
                                </Node>
                            </Node>
                            <Node id="12" recordCount="26.0">
                                <SimplePredicate field="x1" operator="greaterThan" value="0.5623444318771362"/>
                                <Node id="13" score="28.495281215860018" recordCount="23.0">
                                    <SimplePredicate field="x6" operator="lessOrEqual" value="2.125573456287384"/>
                                </Node>
                                <Node id="14" score="53.52033818963602" recordCount="3.0">
                                    <SimplePredicate field="x6" operator="greaterThan" value="2.125573456287384"/>
                                </Node>
                            </Node>
                        </Node>
                    </Node>
                </TreeModel>
            </Segment>
            <Segment id="7" weight="1">
                <True/>
                <TreeModel modelName="decisionTree_Model" functionName="regression" missingValuePenalty="1.0">
                    <MiningSchema>
                        <MiningField name="x1" usageType="active"/>
                        <MiningField name="x2" usageType="active"/>
                        <MiningField name="x3" usageType="active"/>
                        <MiningField name="x4" usageType="active"/>
                        <MiningField name="x5" usageType="active"/>
                        <MiningField name="x6" usageType="active"/>
                        <MiningField name="x7" usageType="active"/>
                        <MiningField name="x8" usageType="active"/>
                        <MiningField name="x9" usageType="active"/>
                        <MiningField name="x10" usageType="active"/>
                        <MiningField name="x11" usageType="active"/>
                        <MiningField name="x12" usageType="active"/>
                        <MiningField name="x13" usageType="active"/>
                        <MiningField name="x14" usageType="active"/>
                        <MiningField name="x15" usageType="active"/>
                        <MiningField name="x16" usageType="active"/>
                        <MiningField name="x17" usageType="active"/>
                        <MiningField name="x18" usageType="active"/>
                        <MiningField name="x19" usageType="active"/>
                        <MiningField name="x20" usageType="active"/>
                        <MiningField name="x21" usageType="active"/>
                        <MiningField name="x22" usageType="active"/>
                        <MiningField name="x23" usageType="active"/>
                        <MiningField name="x24" usageType="active"/>
                    </MiningSchema>
                    <Node id="0" recordCount="75.0">
                        <True/>
                        <Node id="1" recordCount="35.0">
                            <SimplePredicate field="x1" operator="lessOrEqual" value="-0.135188527405262"/>
                            <Node id="2" recordCount="17.0">
                                <SimplePredicate field="x1" operator="lessOrEqual" value="-0.8825452327728271"/>
                                <Node id="3" score="-49.973523212791534" recordCount="9.0">
                                    <SimplePredicate field="x1" operator="lessOrEqual" value="-1.3807830810546875"/>
                                </Node>
                                <Node id="4" score="-34.83794524481209" recordCount="8.0">
                                    <SimplePredicate field="x1" operator="greaterThan" value="-1.3807830810546875"/>
                                </Node>
                            </Node>
                            <Node id="5" recordCount="18.0">
                                <SimplePredicate field="x1" operator="greaterThan" value="-0.8825452327728271"/>
                                <Node id="6" score="-9.52079072086103" recordCount="17.0">
                                    <SimplePredicate field="x11" operator="lessOrEqual" value="1.287351667881012"/>
                                </Node>
                                <Node id="7" score="18.650125622259054" recordCount="1.0">
                                    <SimplePredicate field="x11" operator="greaterThan" value="1.287351667881012"/>
                                </Node>
                            </Node>
                        </Node>
                        <Node id="8" recordCount="40.0">
                            <SimplePredicate field="x1" operator="greaterThan" value="-0.135188527405262"/>
                            <Node id="9" recordCount="20.0">
                                <SimplePredicate field="x1" operator="lessOrEqual" value="0.811463326215744"/>
                                <Node id="10" score="7.947286628000546" recordCount="10.0">
                                    <SimplePredicate field="x1" operator="lessOrEqual" value="0.3879611939191818"/>
                                </Node>
                                <Node id="11" score="17.239256624154468" recordCount="10.0">
                                    <SimplePredicate field="x1" operator="greaterThan" value="0.3879611939191818"/>
                                </Node>
                            </Node>
                            <Node id="12" recordCount="20.0">
                                <SimplePredicate field="x1" operator="greaterThan" value="0.811463326215744"/>
                                <Node id="13" score="24.399577609493832" recordCount="12.0">
                                    <SimplePredicate field="x10" operator="lessOrEqual" value="1.4696614742279053"/>
                                </Node>
                                <Node id="14" score="40.876049853509855" recordCount="8.0">
                                    <SimplePredicate field="x10" operator="greaterThan" value="1.4696614742279053"/>
                                </Node>
                            </Node>
                        </Node>
                    </Node>
                </TreeModel>
            </Segment>
            <Segment id="8" weight="1">
                <True/>
                <TreeModel modelName="decisionTree_Model" functionName="regression" missingValuePenalty="1.0">
                    <MiningSchema>
                        <MiningField name="x1" usageType="active"/>
                        <MiningField name="x2" usageType="active"/>
                        <MiningField name="x3" usageType="active"/>
                        <MiningField name="x4" usageType="active"/>
                        <MiningField name="x5" usageType="active"/>
                        <MiningField name="x6" usageType="active"/>
                        <MiningField name="x7" usageType="active"/>
                        <MiningField name="x8" usageType="active"/>
                        <MiningField name="x9" usageType="active"/>
                        <MiningField name="x10" usageType="active"/>
                        <MiningField name="x11" usageType="active"/>
                        <MiningField name="x12" usageType="active"/>
                        <MiningField name="x13" usageType="active"/>
                        <MiningField name="x14" usageType="active"/>
                        <MiningField name="x15" usageType="active"/>
                        <MiningField name="x16" usageType="active"/>
                        <MiningField name="x17" usageType="active"/>
                        <MiningField name="x18" usageType="active"/>
                        <MiningField name="x19" usageType="active"/>
                        <MiningField name="x20" usageType="active"/>
                        <MiningField name="x21" usageType="active"/>
                        <MiningField name="x22" usageType="active"/>
                        <MiningField name="x23" usageType="active"/>
                        <MiningField name="x24" usageType="active"/>
                    </MiningSchema>
                    <Node id="0" recordCount="75.0">
                        <True/>
                        <Node id="1" recordCount="27.0">
                            <SimplePredicate field="x10" operator="lessOrEqual" value="-0.5253541022539139"/>
                            <Node id="2" recordCount="13.0">
                                <SimplePredicate field="x1" operator="lessOrEqual" value="-1.2063998579978943"/>
                                <Node id="3" score="-40.279240974312195" recordCount="11.0">
                                    <SimplePredicate field="x1" operator="lessOrEqual" value="-1.3309593200683594"/>
                                </Node>
                                <Node id="4" score="-54.31448491833992" recordCount="2.0">
                                    <SimplePredicate field="x1" operator="greaterThan" value="-1.3309593200683594"/>
                                </Node>
                            </Node>
                            <Node id="5" recordCount="14.0">
                                <SimplePredicate field="x1" operator="greaterThan" value="-1.2063998579978943"/>
                                <Node id="6" score="-24.78627338648018" recordCount="6.0">
                                    <SimplePredicate field="x9" operator="lessOrEqual" value="-0.6619942933320999"/>
                                </Node>
                                <Node id="7" score="-7.068066135037753" recordCount="8.0">
                                    <SimplePredicate field="x9" operator="greaterThan" value="-0.6619942933320999"/>
                                </Node>
                            </Node>
                        </Node>
                        <Node id="8" recordCount="48.0">
                            <SimplePredicate field="x10" operator="greaterThan" value="-0.5253541022539139"/>
                            <Node id="9" recordCount="22.0">
                                <SimplePredicate field="x1" operator="lessOrEqual" value="0.5623444318771362"/>
                                <Node id="10" score="3.0407963688884987" recordCount="21.0">
                                    <SimplePredicate field="x3" operator="lessOrEqual" value="2.10042005777359"/>
                                </Node>
                                <Node id="11" score="31.072876556812673" recordCount="1.0">
                                    <SimplePredicate field="x3" operator="greaterThan" value="2.10042005777359"/>
                                </Node>
                            </Node>
                            <Node id="12" recordCount="26.0">
                                <SimplePredicate field="x1" operator="greaterThan" value="0.5623444318771362"/>
                                <Node id="13" score="22.573870890638418" recordCount="22.0">
                                    <SimplePredicate field="x10" operator="lessOrEqual" value="1.6121625900268555"/>
                                </Node>
                                <Node id="14" score="41.35204692439537" recordCount="4.0">
                                    <SimplePredicate field="x10" operator="greaterThan" value="1.6121625900268555"/>
                                </Node>
                            </Node>
                        </Node>
                    </Node>
                </TreeModel>
            </Segment>
            <Segment id="9" weight="1">
                <True/>
                <TreeModel modelName="decisionTree_Model" functionName="regression" missingValuePenalty="1.0">
                    <MiningSchema>
                        <MiningField name="x1" usageType="active"/>
                        <MiningField name="x2" usageType="active"/>
                        <MiningField name="x3" usageType="active"/>
                        <MiningField name="x4" usageType="active"/>
                        <MiningField name="x5" usageType="active"/>
                        <MiningField name="x6" usageType="active"/>
                        <MiningField name="x7" usageType="active"/>
                        <MiningField name="x8" usageType="active"/>
                        <MiningField name="x9" usageType="active"/>
                        <MiningField name="x10" usageType="active"/>
                        <MiningField name="x11" usageType="active"/>
                        <MiningField name="x12" usageType="active"/>
                        <MiningField name="x13" usageType="active"/>
                        <MiningField name="x14" usageType="active"/>
                        <MiningField name="x15" usageType="active"/>
                        <MiningField name="x16" usageType="active"/>
                        <MiningField name="x17" usageType="active"/>
                        <MiningField name="x18" usageType="active"/>
                        <MiningField name="x19" usageType="active"/>
                        <MiningField name="x20" usageType="active"/>
                        <MiningField name="x21" usageType="active"/>
                        <MiningField name="x22" usageType="active"/>
                        <MiningField name="x23" usageType="active"/>
                        <MiningField name="x24" usageType="active"/>
                    </MiningSchema>
                    <Node id="0" recordCount="75.0">
                        <True/>
                        <Node id="1" recordCount="35.0">
                            <SimplePredicate field="x1" operator="lessOrEqual" value="-0.135188527405262"/>
                            <Node id="2" recordCount="17.0">
                                <SimplePredicate field="x1" operator="lessOrEqual" value="-0.8825452327728271"/>
                                <Node id="3" score="-40.94824679408117" recordCount="9.0">
                                    <SimplePredicate field="x1" operator="lessOrEqual" value="-1.3807830810546875"/>
                                </Node>
                                <Node id="4" score="-27.971471494333585" recordCount="8.0">
                                    <SimplePredicate field="x1" operator="greaterThan" value="-1.3807830810546875"/>
                                </Node>
                            </Node>
                            <Node id="5" recordCount="18.0">
                                <SimplePredicate field="x1" operator="greaterThan" value="-0.8825452327728271"/>
                                <Node id="6" score="-8.024941966312804" recordCount="17.0">
                                    <SimplePredicate field="x11" operator="lessOrEqual" value="1.287351667881012"/>
                                </Node>
                                <Node id="7" score="16.48103342314431" recordCount="1.0">
                                    <SimplePredicate field="x11" operator="greaterThan" value="1.287351667881012"/>
                                </Node>
                            </Node>
                        </Node>
                        <Node id="8" recordCount="40.0">
                            <SimplePredicate field="x1" operator="greaterThan" value="-0.135188527405262"/>
                            <Node id="9" recordCount="21.0">
                                <SimplePredicate field="x1" operator="lessOrEqual" value="0.8612871170043945"/>
                                <Node id="10" score="9.846222630451674" recordCount="20.0">
                                    <SimplePredicate field="x3" operator="lessOrEqual" value="2.10042005777359"/>
                                </Node>
                                <Node id="11" score="27.96558890113141" recordCount="1.0">
                                    <SimplePredicate field="x3" operator="greaterThan" value="2.10042005777359"/>
                                </Node>
                            </Node>
                            <Node id="12" recordCount="19.0">
                                <SimplePredicate field="x1" operator="greaterThan" value="0.8612871170043945"/>
                                <Node id="13" score="19.874716513979163" recordCount="11.0">
                                    <SimplePredicate field="x10" operator="lessOrEqual" value="1.4696614742279053"/>
                                </Node>
                                <Node id="14" score="33.59214897740716" recordCount="8.0">
                                    <SimplePredicate field="x10" operator="greaterThan" value="1.4696614742279053"/>
                                </Node>
                            </Node>
                        </Node>
                    </Node>
                </TreeModel>
            </Segment>
            <Segment id="10" weight="1">
                <True/>
                <TreeModel modelName="decisionTree_Model" functionName="regression" missingValuePenalty="1.0">
                    <MiningSchema>
                        <MiningField name="x1" usageType="active"/>
                        <MiningField name="x2" usageType="active"/>
                        <MiningField name="x3" usageType="active"/>
                        <MiningField name="x4" usageType="active"/>
                        <MiningField name="x5" usageType="active"/>
                        <MiningField name="x6" usageType="active"/>
                        <MiningField name="x7" usageType="active"/>
                        <MiningField name="x8" usageType="active"/>
                        <MiningField name="x9" usageType="active"/>
                        <MiningField name="x10" usageType="active"/>
                        <MiningField name="x11" usageType="active"/>
                        <MiningField name="x12" usageType="active"/>
                        <MiningField name="x13" usageType="active"/>
                        <MiningField name="x14" usageType="active"/>
                        <MiningField name="x15" usageType="active"/>
                        <MiningField name="x16" usageType="active"/>
                        <MiningField name="x17" usageType="active"/>
                        <MiningField name="x18" usageType="active"/>
                        <MiningField name="x19" usageType="active"/>
                        <MiningField name="x20" usageType="active"/>
                        <MiningField name="x21" usageType="active"/>
                        <MiningField name="x22" usageType="active"/>
                        <MiningField name="x23" usageType="active"/>
                        <MiningField name="x24" usageType="active"/>
                    </MiningSchema>
                    <Node id="0" recordCount="75.0">
                        <True/>
                        <Node id="1" recordCount="35.0">
                            <SimplePredicate field="x1" operator="lessOrEqual" value="-0.135188527405262"/>
                            <Node id="2" recordCount="17.0">
                                <SimplePredicate field="x1" operator="lessOrEqual" value="-0.8825452327728271"/>
                                <Node id="3" score="-36.853422114673045" recordCount="9.0">
                                    <SimplePredicate field="x1" operator="lessOrEqual" value="-1.3807830810546875"/>
                                </Node>
                                <Node id="4" score="-25.174324344900228" recordCount="8.0">
                                    <SimplePredicate field="x1" operator="greaterThan" value="-1.3807830810546875"/>
                                </Node>
                            </Node>
                            <Node id="5" recordCount="18.0">
                                <SimplePredicate field="x1" operator="greaterThan" value="-0.8825452327728271"/>
                                <Node id="6" score="-15.86085277075139" recordCount="4.0">
                                    <SimplePredicate field="x9" operator="lessOrEqual" value="-0.6619942933320999"/>
                                </Node>
                                <Node id="7" score="-3.178947922910741" recordCount="14.0">
                                    <SimplePredicate field="x9" operator="greaterThan" value="-0.6619942933320999"/>
                                </Node>
                            </Node>
                        </Node>
                        <Node id="8" recordCount="40.0">
                            <SimplePredicate field="x1" operator="greaterThan" value="-0.135188527405262"/>
                            <Node id="9" recordCount="18.0">
                                <SimplePredicate field="x1" operator="lessOrEqual" value="0.7616395354270935"/>
                                <Node id="10" score="7.549357385894615" recordCount="17.0">
                                    <SimplePredicate field="x3" operator="lessOrEqual" value="2.10042005777359"/>
                                </Node>
                                <Node id="11" score="25.169030011018265" recordCount="1.0">
                                    <SimplePredicate field="x3" operator="greaterThan" value="2.10042005777359"/>
                                </Node>
                            </Node>
                            <Node id="12" recordCount="22.0">
                                <SimplePredicate field="x1" operator="greaterThan" value="0.7616395354270935"/>
                                <Node id="13" score="19.684295964288005" recordCount="19.0">
                                    <SimplePredicate field="x6" operator="lessOrEqual" value="2.125573456287384"/>
                                </Node>
                                <Node id="14" score="37.83815819739163" recordCount="3.0">
                                    <SimplePredicate field="x6" operator="greaterThan" value="2.125573456287384"/>
                                </Node>
                            </Node>
                        </Node>
                    </Node>
                </TreeModel>
            </Segment>
            <Segment id="11" weight="1">
                <True/>
                <TreeModel modelName="decisionTree_Model" functionName="regression" missingValuePenalty="1.0">
                    <MiningSchema>
                        <MiningField name="x1" usageType="active"/>
                        <MiningField name="x2" usageType="active"/>
                        <MiningField name="x3" usageType="active"/>
                        <MiningField name="x4" usageType="active"/>
                        <MiningField name="x5" usageType="active"/>
                        <MiningField name="x6" usageType="active"/>
                        <MiningField name="x7" usageType="active"/>
                        <MiningField name="x8" usageType="active"/>
                        <MiningField name="x9" usageType="active"/>
                        <MiningField name="x10" usageType="active"/>
                        <MiningField name="x11" usageType="active"/>
                        <MiningField name="x12" usageType="active"/>
                        <MiningField name="x13" usageType="active"/>
                        <MiningField name="x14" usageType="active"/>
                        <MiningField name="x15" usageType="active"/>
                        <MiningField name="x16" usageType="active"/>
                        <MiningField name="x17" usageType="active"/>
                        <MiningField name="x18" usageType="active"/>
                        <MiningField name="x19" usageType="active"/>
                        <MiningField name="x20" usageType="active"/>
                        <MiningField name="x21" usageType="active"/>
                        <MiningField name="x22" usageType="active"/>
                        <MiningField name="x23" usageType="active"/>
                        <MiningField name="x24" usageType="active"/>
                    </MiningSchema>
                    <Node id="0" recordCount="75.0">
                        <True/>
                        <Node id="1" recordCount="27.0">
                            <SimplePredicate field="x10" operator="lessOrEqual" value="-0.5253541022539139"/>
                            <Node id="2" recordCount="13.0">
                                <SimplePredicate field="x1" operator="lessOrEqual" value="-1.2063998579978943"/>
                                <Node id="3" score="-28.919438587269568" recordCount="11.0">
                                    <SimplePredicate field="x1" operator="lessOrEqual" value="-1.3309593200683594"/>
                                </Node>
                                <Node id="4" score="-43.568456842582556" recordCount="2.0">
                                    <SimplePredicate field="x1" operator="greaterThan" value="-1.3309593200683594"/>
                                </Node>
                            </Node>
                            <Node id="5" recordCount="14.0">
                                <SimplePredicate field="x1" operator="greaterThan" value="-1.2063998579978943"/>
                                <Node id="6" score="-15.774720803054057" recordCount="9.0">
                                    <SimplePredicate field="x9" operator="lessOrEqual" value="-0.1822882816195488"/>
                                </Node>
                                <Node id="7" score="-1.871326508613194" recordCount="5.0">
                                    <SimplePredicate field="x9" operator="greaterThan" value="-0.1822882816195488"/>
                                </Node>
                            </Node>
                        </Node>
                        <Node id="8" recordCount="48.0">
                            <SimplePredicate field="x10" operator="greaterThan" value="-0.5253541022539139"/>
                            <Node id="9" recordCount="22.0">
                                <SimplePredicate field="x1" operator="lessOrEqual" value="0.5623444318771362"/>
                                <Node id="10" score="2.166545199929366" recordCount="21.0">
                                    <SimplePredicate field="x3" operator="lessOrEqual" value="2.10042005777359"/>
                                </Node>
                                <Node id="11" score="22.652127009916427" recordCount="1.0">
                                    <SimplePredicate field="x3" operator="greaterThan" value="2.10042005777359"/>
                                </Node>
                            </Node>
                            <Node id="12" recordCount="26.0">
                                <SimplePredicate field="x1" operator="greaterThan" value="0.5623444318771362"/>
                                <Node id="13" score="13.981120267360104" recordCount="15.0">
                                    <SimplePredicate field="x3" operator="lessOrEqual" value="0.7876574993133545"/>
                                </Node>
                                <Node id="14" score="25.337599328883698" recordCount="11.0">
                                    <SimplePredicate field="x3" operator="greaterThan" value="0.7876574993133545"/>
                                </Node>
                            </Node>
                        </Node>
                    </Node>
                </TreeModel>
            </Segment>
            <Segment id="12" weight="1">
                <True/>
                <TreeModel modelName="decisionTree_Model" functionName="regression" missingValuePenalty="1.0">
                    <MiningSchema>
                        <MiningField name="x1" usageType="active"/>
                        <MiningField name="x2" usageType="active"/>
                        <MiningField name="x3" usageType="active"/>
                        <MiningField name="x4" usageType="active"/>
                        <MiningField name="x5" usageType="active"/>
                        <MiningField name="x6" usageType="active"/>
                        <MiningField name="x7" usageType="active"/>
                        <MiningField name="x8" usageType="active"/>
                        <MiningField name="x9" usageType="active"/>
                        <MiningField name="x10" usageType="active"/>
                        <MiningField name="x11" usageType="active"/>
                        <MiningField name="x12" usageType="active"/>
                        <MiningField name="x13" usageType="active"/>
                        <MiningField name="x14" usageType="active"/>
                        <MiningField name="x15" usageType="active"/>
                        <MiningField name="x16" usageType="active"/>
                        <MiningField name="x17" usageType="active"/>
                        <MiningField name="x18" usageType="active"/>
                        <MiningField name="x19" usageType="active"/>
                        <MiningField name="x20" usageType="active"/>
                        <MiningField name="x21" usageType="active"/>
                        <MiningField name="x22" usageType="active"/>
                        <MiningField name="x23" usageType="active"/>
                        <MiningField name="x24" usageType="active"/>
                    </MiningSchema>
                    <Node id="0" recordCount="75.0">
                        <True/>
                        <Node id="1" recordCount="35.0">
                            <SimplePredicate field="x1" operator="lessOrEqual" value="-0.135188527405262"/>
                            <Node id="2" recordCount="17.0">
                                <SimplePredicate field="x1" operator="lessOrEqual" value="-0.8825452327728271"/>
                                <Node id="3" score="-30.27613604447879" recordCount="9.0">
                                    <SimplePredicate field="x1" operator="lessOrEqual" value="-1.3807830810546875"/>
                                </Node>
                                <Node id="4" score="-20.055958484511198" recordCount="8.0">
                                    <SimplePredicate field="x1" operator="greaterThan" value="-1.3807830810546875"/>
                                </Node>
                            </Node>
                            <Node id="5" recordCount="18.0">
                                <SimplePredicate field="x1" operator="greaterThan" value="-0.8825452327728271"/>
                                <Node id="6" score="14.934170353127996" recordCount="1.0">
                                    <SimplePredicate field="x2" operator="lessOrEqual" value="-1.0537591576576233"/>
                                </Node>
                                <Node id="7" score="-6.200116695968973" recordCount="17.0">
                                    <SimplePredicate field="x2" operator="greaterThan" value="-1.0537591576576233"/>
                                </Node>
                            </Node>
                        </Node>
                        <Node id="8" recordCount="40.0">
                            <SimplePredicate field="x1" operator="greaterThan" value="-0.135188527405262"/>
                            <Node id="9" recordCount="30.0">
                                <SimplePredicate field="x1" operator="lessOrEqual" value="1.2100536227226257"/>
                                <Node id="10" score="8.75383002861413" recordCount="29.0">
                                    <SimplePredicate field="x5" operator="lessOrEqual" value="3.6832040548324585"/>
                                </Node>
                                <Node id="11" score="40.31525027928137" recordCount="1.0">
                                    <SimplePredicate field="x5" operator="greaterThan" value="3.6832040548324585"/>
                                </Node>
                            </Node>
                            <Node id="12" recordCount="10.0">
                                <SimplePredicate field="x1" operator="greaterThan" value="1.2100536227226257"/>
                                <Node id="13" score="18.837995814728956" recordCount="8.0">
                                    <SimplePredicate field="x4" operator="lessOrEqual" value="1.2030332684516907"/>
                                </Node>
                                <Node id="14" score="39.26026077830285" recordCount="2.0">
                                    <SimplePredicate field="x4" operator="greaterThan" value="1.2030332684516907"/>
                                </Node>
                            </Node>
                        </Node>
                    </Node>
                </TreeModel>
            </Segment>
            <Segment id="13" weight="1">
                <True/>
                <TreeModel modelName="decisionTree_Model" functionName="regression" missingValuePenalty="1.0">
                    <MiningSchema>
                        <MiningField name="x1" usageType="active"/>
                        <MiningField name="x2" usageType="active"/>
                        <MiningField name="x3" usageType="active"/>
                        <MiningField name="x4" usageType="active"/>
                        <MiningField name="x5" usageType="active"/>
                        <MiningField name="x6" usageType="active"/>
                        <MiningField name="x7" usageType="active"/>
                        <MiningField name="x8" usageType="active"/>
                        <MiningField name="x9" usageType="active"/>
                        <MiningField name="x10" usageType="active"/>
                        <MiningField name="x11" usageType="active"/>
                        <MiningField name="x12" usageType="active"/>
                        <MiningField name="x13" usageType="active"/>
                        <MiningField name="x14" usageType="active"/>
                        <MiningField name="x15" usageType="active"/>
                        <MiningField name="x16" usageType="active"/>
                        <MiningField name="x17" usageType="active"/>
                        <MiningField name="x18" usageType="active"/>
                        <MiningField name="x19" usageType="active"/>
                        <MiningField name="x20" usageType="active"/>
                        <MiningField name="x21" usageType="active"/>
                        <MiningField name="x22" usageType="active"/>
                        <MiningField name="x23" usageType="active"/>
                        <MiningField name="x24" usageType="active"/>
                    </MiningSchema>
                    <Node id="0" recordCount="75.0">
                        <True/>
                        <Node id="1" recordCount="35.0">
                            <SimplePredicate field="x1" operator="lessOrEqual" value="-0.135188527405262"/>
                            <Node id="2" recordCount="17.0">
                                <SimplePredicate field="x1" operator="lessOrEqual" value="-0.8825452327728271"/>
                                <Node id="3" score="-27.24852244003091" recordCount="9.0">
                                    <SimplePredicate field="x1" operator="lessOrEqual" value="-1.3807830810546875"/>
                                </Node>
                                <Node id="4" score="-18.050362636060076" recordCount="8.0">
                                    <SimplePredicate field="x1" operator="greaterThan" value="-1.3807830810546875"/>
                                </Node>
                            </Node>
                            <Node id="5" recordCount="18.0">
                                <SimplePredicate field="x1" operator="greaterThan" value="-0.8825452327728271"/>
                                <Node id="6" score="13.440753317815194" recordCount="1.0">
                                    <SimplePredicate field="x2" operator="lessOrEqual" value="-1.0537591576576233"/>
                                </Node>
                                <Node id="7" score="-5.580105026372081" recordCount="17.0">
                                    <SimplePredicate field="x2" operator="greaterThan" value="-1.0537591576576233"/>
                                </Node>
                            </Node>
                        </Node>
                        <Node id="8" recordCount="40.0">
                            <SimplePredicate field="x1" operator="greaterThan" value="-0.135188527405262"/>
                            <Node id="9" recordCount="31.0">
                                <SimplePredicate field="x10" operator="lessOrEqual" value="1.4696614742279053"/>
                                <Node id="10" score="7.243388128413997" recordCount="28.0">
                                    <SimplePredicate field="x2" operator="lessOrEqual" value="1.487460732460022"/>
                                </Node>
                                <Node id="11" score="25.057027722215537" recordCount="3.0">
                                    <SimplePredicate field="x2" operator="greaterThan" value="1.487460732460022"/>
                                </Node>
                            </Node>
                            <Node id="12" recordCount="9.0">
                                <SimplePredicate field="x10" operator="greaterThan" value="1.4696614742279053"/>
                                <Node id="13" score="6.964183666486932" recordCount="2.0">
                                    <SimplePredicate field="x1" operator="lessOrEqual" value="1.1353179216384888"/>
                                </Node>
                                <Node id="14" score="25.592344309994775" recordCount="7.0">
                                    <SimplePredicate field="x1" operator="greaterThan" value="1.1353179216384888"/>
                                </Node>
                            </Node>
                        </Node>
                    </Node>
                </TreeModel>
            </Segment>
            <Segment id="14" weight="1">
                <True/>
                <TreeModel modelName="decisionTree_Model" functionName="regression" missingValuePenalty="1.0">
                    <MiningSchema>
                        <MiningField name="x1" usageType="active"/>
                        <MiningField name="x2" usageType="active"/>
                        <MiningField name="x3" usageType="active"/>
                        <MiningField name="x4" usageType="active"/>
                        <MiningField name="x5" usageType="active"/>
                        <MiningField name="x6" usageType="active"/>
                        <MiningField name="x7" usageType="active"/>
                        <MiningField name="x8" usageType="active"/>
                        <MiningField name="x9" usageType="active"/>
                        <MiningField name="x10" usageType="active"/>
                        <MiningField name="x11" usageType="active"/>
                        <MiningField name="x12" usageType="active"/>
                        <MiningField name="x13" usageType="active"/>
                        <MiningField name="x14" usageType="active"/>
                        <MiningField name="x15" usageType="active"/>
                        <MiningField name="x16" usageType="active"/>
                        <MiningField name="x17" usageType="active"/>
                        <MiningField name="x18" usageType="active"/>
                        <MiningField name="x19" usageType="active"/>
                        <MiningField name="x20" usageType="active"/>
                        <MiningField name="x21" usageType="active"/>
                        <MiningField name="x22" usageType="active"/>
                        <MiningField name="x23" usageType="active"/>
                        <MiningField name="x24" usageType="active"/>
                    </MiningSchema>
                    <Node id="0" recordCount="75.0">
                        <True/>
                        <Node id="1" recordCount="27.0">
                            <SimplePredicate field="x10" operator="lessOrEqual" value="-0.5253541022539139"/>
                            <Node id="2" recordCount="19.0">
                                <SimplePredicate field="x9" operator="lessOrEqual" value="-0.6619942933320999"/>
                                <Node id="3" score="-24.52367019602782" recordCount="9.0">
                                    <SimplePredicate field="x1" operator="lessOrEqual" value="-1.3807830810546875"/>
                                </Node>
                                <Node id="4" score="-16.3303515261477" recordCount="10.0">
                                    <SimplePredicate field="x1" operator="greaterThan" value="-1.3807830810546875"/>
                                </Node>
                            </Node>
                            <Node id="5" recordCount="8.0">
                                <SimplePredicate field="x9" operator="greaterThan" value="-0.6619942933320999"/>
                                <Node id="6" score="-19.445040418246407" recordCount="1.0">
                                    <SimplePredicate field="x2" operator="lessOrEqual" value="-1.0537591576576233"/>
                                </Node>
                                <Node id="7" score="-0.8857939161744091" recordCount="7.0">
                                    <SimplePredicate field="x2" operator="greaterThan" value="-1.0537591576576233"/>
                                </Node>
                            </Node>
                        </Node>
                        <Node id="8" recordCount="48.0">
                            <SimplePredicate field="x10" operator="greaterThan" value="-0.5253541022539139"/>
                            <Node id="9" recordCount="22.0">
                                <SimplePredicate field="x1" operator="lessOrEqual" value="0.5623444318771362"/>
                                <Node id="10" score="1.349415595286165" recordCount="21.0">
                                    <SimplePredicate field="x3" operator="lessOrEqual" value="2.10042005777359"/>
                                </Node>
                                <Node id="11" score="18.787192493221966" recordCount="1.0">
                                    <SimplePredicate field="x3" operator="greaterThan" value="2.10042005777359"/>
                                </Node>
                            </Node>
                            <Node id="12" recordCount="26.0">
                                <SimplePredicate field="x1" operator="greaterThan" value="0.5623444318771362"/>
                                <Node id="13" score="12.27005399711343" recordCount="23.0">
                                    <SimplePredicate field="x6" operator="lessOrEqual" value="2.125573456287384"/>
                                </Node>
                                <Node id="14" score="26.775355568890046" recordCount="3.0">
                                    <SimplePredicate field="x6" operator="greaterThan" value="2.125573456287384"/>
                                </Node>
                            </Node>
                        </Node>
                    </Node>
                </TreeModel>
            </Segment>
            <Segment id="15" weight="1">
                <True/>
                <TreeModel modelName="decisionTree_Model" functionName="regression" missingValuePenalty="1.0">
                    <MiningSchema>
                        <MiningField name="x1" usageType="active"/>
                        <MiningField name="x2" usageType="active"/>
                        <MiningField name="x3" usageType="active"/>
                        <MiningField name="x4" usageType="active"/>
                        <MiningField name="x5" usageType="active"/>
                        <MiningField name="x6" usageType="active"/>
                        <MiningField name="x7" usageType="active"/>
                        <MiningField name="x8" usageType="active"/>
                        <MiningField name="x9" usageType="active"/>
                        <MiningField name="x10" usageType="active"/>
                        <MiningField name="x11" usageType="active"/>
                        <MiningField name="x12" usageType="active"/>
                        <MiningField name="x13" usageType="active"/>
                        <MiningField name="x14" usageType="active"/>
                        <MiningField name="x15" usageType="active"/>
                        <MiningField name="x16" usageType="active"/>
                        <MiningField name="x17" usageType="active"/>
                        <MiningField name="x18" usageType="active"/>
                        <MiningField name="x19" usageType="active"/>
                        <MiningField name="x20" usageType="active"/>
                        <MiningField name="x21" usageType="active"/>
                        <MiningField name="x22" usageType="active"/>
                        <MiningField name="x23" usageType="active"/>
                        <MiningField name="x24" usageType="active"/>
                    </MiningSchema>
                    <Node id="0" recordCount="75.0">
                        <True/>
                        <Node id="1" recordCount="35.0">
                            <SimplePredicate field="x1" operator="lessOrEqual" value="-0.135188527405262"/>
                            <Node id="2" recordCount="13.0">
                                <SimplePredicate field="x1" operator="lessOrEqual" value="-1.2063998579978943"/>
                                <Node id="3" score="-18.324691970194646" recordCount="11.0">
                                    <SimplePredicate field="x1" operator="lessOrEqual" value="-1.3309593200683594"/>
                                </Node>
                                <Node id="4" score="-33.767943893652394" recordCount="2.0">
                                    <SimplePredicate field="x1" operator="greaterThan" value="-1.3309593200683594"/>
                                </Node>
                            </Node>
                            <Node id="5" recordCount="22.0">
                                <SimplePredicate field="x1" operator="greaterThan" value="-1.2063998579978943"/>
                                <Node id="6" score="-7.4961390348707315" recordCount="17.0">
                                    <SimplePredicate field="x5" operator="lessOrEqual" value="0.173162080347538"/>
                                </Node>
                                <Node id="7" score="2.4500904898501403" recordCount="5.0">
                                    <SimplePredicate field="x5" operator="greaterThan" value="0.173162080347538"/>
                                </Node>
                            </Node>
                        </Node>
                        <Node id="8" recordCount="40.0">
                            <SimplePredicate field="x1" operator="greaterThan" value="-0.135188527405262"/>
                            <Node id="9" recordCount="36.0">
                                <SimplePredicate field="x10" operator="lessOrEqual" value="1.6121625900268555"/>
                                <Node id="10" score="6.4437809319983375" recordCount="32.0">
                                    <SimplePredicate field="x2" operator="lessOrEqual" value="1.487460732460022"/>
                                </Node>
                                <Node id="11" score="21.880349394617788" recordCount="4.0">
                                    <SimplePredicate field="x2" operator="greaterThan" value="1.487460732460022"/>
                                </Node>
                            </Node>
                            <Node id="12" score="22.642274650040974" recordCount="4.0">
                                <SimplePredicate field="x10" operator="greaterThan" value="1.6121625900268555"/>
                            </Node>
                        </Node>
                    </Node>
                </TreeModel>
            </Segment>
            <Segment id="16" weight="1">
                <True/>
                <TreeModel modelName="decisionTree_Model" functionName="regression" missingValuePenalty="1.0">
                    <MiningSchema>
                        <MiningField name="x1" usageType="active"/>
                        <MiningField name="x2" usageType="active"/>
                        <MiningField name="x3" usageType="active"/>
                        <MiningField name="x4" usageType="active"/>
                        <MiningField name="x5" usageType="active"/>
                        <MiningField name="x6" usageType="active"/>
                        <MiningField name="x7" usageType="active"/>
                        <MiningField name="x8" usageType="active"/>
                        <MiningField name="x9" usageType="active"/>
                        <MiningField name="x10" usageType="active"/>
                        <MiningField name="x11" usageType="active"/>
                        <MiningField name="x12" usageType="active"/>
                        <MiningField name="x13" usageType="active"/>
                        <MiningField name="x14" usageType="active"/>
                        <MiningField name="x15" usageType="active"/>
                        <MiningField name="x16" usageType="active"/>
                        <MiningField name="x17" usageType="active"/>
                        <MiningField name="x18" usageType="active"/>
                        <MiningField name="x19" usageType="active"/>
                        <MiningField name="x20" usageType="active"/>
                        <MiningField name="x21" usageType="active"/>
                        <MiningField name="x22" usageType="active"/>
                        <MiningField name="x23" usageType="active"/>
                        <MiningField name="x24" usageType="active"/>
                    </MiningSchema>
                    <Node id="0" recordCount="75.0">
                        <True/>
                        <Node id="1" recordCount="27.0">
                            <SimplePredicate field="x10" operator="lessOrEqual" value="-0.5253541022539139"/>
                            <Node id="2" recordCount="19.0">
                                <SimplePredicate field="x9" operator="lessOrEqual" value="-0.6619942933320999"/>
                                <Node id="3" score="-17.41199379551596" recordCount="18.0">
                                    <SimplePredicate field="x2" operator="lessOrEqual" value="0.4709727540612221"/>
                                </Node>
                                <Node id="4" score="-0.7905706370003145" recordCount="1.0">
                                    <SimplePredicate field="x2" operator="greaterThan" value="0.4709727540612221"/>
                                </Node>
                            </Node>
                            <Node id="5" recordCount="8.0">
                                <SimplePredicate field="x9" operator="greaterThan" value="-0.6619942933320999"/>
                                <Node id="6" score="-16.75092247293469" recordCount="1.0">
                                    <SimplePredicate field="x1" operator="lessOrEqual" value="-0.8825452327728271"/>
                                </Node>
                                <Node id="7" score="-0.5309203213029049" recordCount="7.0">
                                    <SimplePredicate field="x1" operator="greaterThan" value="-0.8825452327728271"/>
                                </Node>
                            </Node>
                        </Node>
                        <Node id="8" recordCount="48.0">
                            <SimplePredicate field="x10" operator="greaterThan" value="-0.5253541022539139"/>
                            <Node id="9" recordCount="22.0">
                                <SimplePredicate field="x1" operator="lessOrEqual" value="0.5623444318771362"/>
                                <Node id="10" score="1.025432090784666" recordCount="21.0">
                                    <SimplePredicate field="x3" operator="lessOrEqual" value="2.10042005777359"/>
                                </Node>
                                <Node id="11" score="16.264095150699944" recordCount="1.0">
                                    <SimplePredicate field="x3" operator="greaterThan" value="2.10042005777359"/>
                                </Node>
                            </Node>
                            <Node id="12" recordCount="26.0">
                                <SimplePredicate field="x1" operator="greaterThan" value="0.5623444318771362"/>
                                <Node id="13" score="9.918923743312662" recordCount="23.0">
                                    <SimplePredicate field="x6" operator="lessOrEqual" value="2.125573456287384"/>
                                </Node>
                                <Node id="14" score="22.913492128199778" recordCount="3.0">
                                    <SimplePredicate field="x6" operator="greaterThan" value="2.125573456287384"/>
                                </Node>
                            </Node>
                        </Node>
                    </Node>
                </TreeModel>
            </Segment>
            <Segment id="17" weight="1">
                <True/>
                <TreeModel modelName="decisionTree_Model" functionName="regression" missingValuePenalty="1.0">
                    <MiningSchema>
                        <MiningField name="x1" usageType="active"/>
                        <MiningField name="x2" usageType="active"/>
                        <MiningField name="x3" usageType="active"/>
                        <MiningField name="x4" usageType="active"/>
                        <MiningField name="x5" usageType="active"/>
                        <MiningField name="x6" usageType="active"/>
                        <MiningField name="x7" usageType="active"/>
                        <MiningField name="x8" usageType="active"/>
                        <MiningField name="x9" usageType="active"/>
                        <MiningField name="x10" usageType="active"/>
                        <MiningField name="x11" usageType="active"/>
                        <MiningField name="x12" usageType="active"/>
                        <MiningField name="x13" usageType="active"/>
                        <MiningField name="x14" usageType="active"/>
                        <MiningField name="x15" usageType="active"/>
                        <MiningField name="x16" usageType="active"/>
                        <MiningField name="x17" usageType="active"/>
                        <MiningField name="x18" usageType="active"/>
                        <MiningField name="x19" usageType="active"/>
                        <MiningField name="x20" usageType="active"/>
                        <MiningField name="x21" usageType="active"/>
                        <MiningField name="x22" usageType="active"/>
                        <MiningField name="x23" usageType="active"/>
                        <MiningField name="x24" usageType="active"/>
                    </MiningSchema>
                    <Node id="0" recordCount="75.0">
                        <True/>
                        <Node id="1" recordCount="35.0">
                            <SimplePredicate field="x1" operator="lessOrEqual" value="-0.135188527405262"/>
                            <Node id="2" recordCount="13.0">
                                <SimplePredicate field="x1" operator="lessOrEqual" value="-1.2063998579978943"/>
                                <Node id="3" score="-14.751023393623587" recordCount="11.0">
                                    <SimplePredicate field="x1" operator="lessOrEqual" value="-1.3309593200683594"/>
                                </Node>
                                <Node id="4" score="-28.64995012473556" recordCount="2.0">
                                    <SimplePredicate field="x1" operator="greaterThan" value="-1.3309593200683594"/>
                                </Node>
                            </Node>
                            <Node id="5" recordCount="22.0">
                                <SimplePredicate field="x1" operator="greaterThan" value="-1.2063998579978943"/>
                                <Node id="6" score="-6.15492189121884" recordCount="17.0">
                                    <SimplePredicate field="x5" operator="lessOrEqual" value="0.173162080347538"/>
                                </Node>
                                <Node id="7" score="2.164792328270164" recordCount="5.0">
                                    <SimplePredicate field="x5" operator="greaterThan" value="0.173162080347538"/>
                                </Node>
                            </Node>
                        </Node>
                        <Node id="8" recordCount="40.0">
                            <SimplePredicate field="x1" operator="greaterThan" value="-0.135188527405262"/>
                            <Node id="9" recordCount="36.0">
                                <SimplePredicate field="x10" operator="lessOrEqual" value="1.6121625900268555"/>
                                <Node id="10" score="5.072627451085333" recordCount="32.0">
                                    <SimplePredicate field="x2" operator="lessOrEqual" value="1.487460732460022"/>
                                </Node>
                                <Node id="11" score="18.700422080824758" recordCount="4.0">
                                    <SimplePredicate field="x2" operator="greaterThan" value="1.487460732460022"/>
                                </Node>
                            </Node>
                            <Node id="12" score="19.061290601083442" recordCount="4.0">
                                <SimplePredicate field="x10" operator="greaterThan" value="1.6121625900268555"/>
                            </Node>
                        </Node>
                    </Node>
                </TreeModel>
            </Segment>
            <Segment id="18" weight="1">
                <True/>
                <TreeModel modelName="decisionTree_Model" functionName="regression" missingValuePenalty="1.0">
                    <MiningSchema>
                        <MiningField name="x1" usageType="active"/>
                        <MiningField name="x2" usageType="active"/>
                        <MiningField name="x3" usageType="active"/>
                        <MiningField name="x4" usageType="active"/>
                        <MiningField name="x5" usageType="active"/>
                        <MiningField name="x6" usageType="active"/>
                        <MiningField name="x7" usageType="active"/>
                        <MiningField name="x8" usageType="active"/>
                        <MiningField name="x9" usageType="active"/>
