<?xml version="1.0" encoding="UTF-8"?>
<PMML xmlns="http://www.dmg.org/PMML-4_3" version="4.3Ext">
    <Header copyright="Copyright (c) 2018 Software AG" description="Default description">
        <Timestamp>2018-11-04 11:21:02.799973</Timestamp>
    </Header>
    <MiningBuildTask>
        <Extension value="Pipeline(memory=None,
    steps=[('model',RandomForestRegressor(bootstrap=True, criterion='mse', max_depth=None,
           max_features='sqrt', max_leaf_nodes=None,
           min_impurity_decrease=0.0, min_impurity_split=None,
           min_samples_leaf=1, min_samples_split=2,
           min_weight_fraction_leaf=0.0, n_estimators=50, n_jobs=None,
           oob_score=True, random_state=42, verbose=0, warm_start=False))])">
            
        </Extension>
    </MiningBuildTask>
    <DataDictionary numberOfFields="25">
        <DataField name="x1" optype="continuous" dataType="double"/>
        <DataField name="x2" optype="continuous" dataType="double"/>
        <DataField name="x3" optype="continuous" dataType="double"/>
        <DataField name="x4" optype="continuous" dataType="double"/>
        <DataField name="x5" optype="continuous" dataType="double"/>
        <DataField name="x6" optype="continuous" dataType="double"/>
        <DataField name="x7" optype="continuous" dataType="double"/>
        <DataField name="x8" optype="continuous" dataType="double"/>
        <DataField name="x9" optype="continuous" dataType="double"/>
        <DataField name="x10" optype="continuous" dataType="double"/>
        <DataField name="x11" optype="continuous" dataType="double"/>
        <DataField name="x12" optype="continuous" dataType="double"/>
        <DataField name="x13" optype="continuous" dataType="double"/>
        <DataField name="x14" optype="continuous" dataType="double"/>
        <DataField name="x15" optype="continuous" dataType="double"/>
        <DataField name="x16" optype="continuous" dataType="double"/>
        <DataField name="x17" optype="continuous" dataType="double"/>
        <DataField name="x18" optype="continuous" dataType="double"/>
        <DataField name="x19" optype="continuous" dataType="double"/>
        <DataField name="x20" optype="continuous" dataType="double"/>
        <DataField name="x21" optype="continuous" dataType="double"/>
        <DataField name="x22" optype="continuous" dataType="double"/>
        <DataField name="x23" optype="continuous" dataType="double"/>
        <DataField name="x24" optype="continuous" dataType="double"/>
        <DataField name="BatteryDropTime" optype="continuous" dataType="double"/>
    </DataDictionary>
    <MiningModel functionName="regression">
        <MiningSchema>
            <MiningField name="x1" usageType="active" optype="continuous"/>
            <MiningField name="x2" usageType="active" optype="continuous"/>
            <MiningField name="x3" usageType="active" optype="continuous"/>
            <MiningField name="x4" usageType="active" optype="continuous"/>
            <MiningField name="x5" usageType="active" optype="continuous"/>
            <MiningField name="x6" usageType="active" optype="continuous"/>
            <MiningField name="x7" usageType="active" optype="continuous"/>
            <MiningField name="x8" usageType="active" optype="continuous"/>
            <MiningField name="x9" usageType="active" optype="continuous"/>
            <MiningField name="x10" usageType="active" optype="continuous"/>
            <MiningField name="x11" usageType="active" optype="continuous"/>
            <MiningField name="x12" usageType="active" optype="continuous"/>
            <MiningField name="x13" usageType="active" optype="continuous"/>
            <MiningField name="x14" usageType="active" optype="continuous"/>
            <MiningField name="x15" usageType="active" optype="continuous"/>
            <MiningField name="x16" usageType="active" optype="continuous"/>
            <MiningField name="x17" usageType="active" optype="continuous"/>
            <MiningField name="x18" usageType="active" optype="continuous"/>
            <MiningField name="x19" usageType="active" optype="continuous"/>
            <MiningField name="x20" usageType="active" optype="continuous"/>
            <MiningField name="x21" usageType="active" optype="continuous"/>
            <MiningField name="x22" usageType="active" optype="continuous"/>
            <MiningField name="x23" usageType="active" optype="continuous"/>
            <MiningField name="x24" usageType="active" optype="continuous"/>
            <MiningField name="BatteryDropTime" usageType="target" optype="continuous"/>
        </MiningSchema>
        <Output>
            <OutputField name="predicted" optype="continuous" dataType="double" feature="predictedValue"/>
        </Output>
        <Segmentation multipleModelMethod="average">
            <Segment id="0" weight="1">
                <True/>
                <TreeModel modelName="decisionTree_Model" functionName="regression" missingValuePenalty="1.0">
                    <MiningSchema>
                        <MiningField name="x1" usageType="active"/>
                        <MiningField name="x2" usageType="active"/>
                        <MiningField name="x3" usageType="active"/>
                        <MiningField name="x4" usageType="active"/>
                        <MiningField name="x5" usageType="active"/>
                        <MiningField name="x6" usageType="active"/>
                        <MiningField name="x7" usageType="active"/>
                        <MiningField name="x8" usageType="active"/>
                        <MiningField name="x9" usageType="active"/>
                        <MiningField name="x10" usageType="active"/>
                        <MiningField name="x11" usageType="active"/>
                        <MiningField name="x12" usageType="active"/>
                        <MiningField name="x13" usageType="active"/>
                        <MiningField name="x14" usageType="active"/>
                        <MiningField name="x15" usageType="active"/>
                        <MiningField name="x16" usageType="active"/>
                        <MiningField name="x17" usageType="active"/>
                        <MiningField name="x18" usageType="active"/>
                        <MiningField name="x19" usageType="active"/>
                        <MiningField name="x20" usageType="active"/>
                        <MiningField name="x21" usageType="active"/>
                        <MiningField name="x22" usageType="active"/>
                        <MiningField name="x23" usageType="active"/>
                        <MiningField name="x24" usageType="active"/>
                    </MiningSchema>
                    <Node id="0" recordCount="53.0">
                        <True/>
                        <Node id="1" recordCount="51.0">
                            <SimplePredicate field="x6" operator="lessOrEqual" value="1.808697521686554"/>
                            <Node id="2" recordCount="8.0">
                                <SimplePredicate field="x10" operator="lessOrEqual" value="-0.9518883228302002"/>
                                <Node id="3" recordCount="2.0">
                                    <SimplePredicate field="x11" operator="lessOrEqual" value="-1.1665451228618622"/>
                                    <Node id="4" score="20.0" recordCount="1.0">
                                        <SimplePredicate field="x1" operator="lessOrEqual" value="-1.348806917667389"/>
                                    </Node>
                                    <Node id="5" score="19.0" recordCount="1.0">
                                        <SimplePredicate field="x1" operator="greaterThan" value="-1.348806917667389"/>
                                    </Node>
                                </Node>
                                <Node id="6" recordCount="6.0">
                                    <SimplePredicate field="x11" operator="greaterThan" value="-1.1665451228618622"/>
                                    <Node id="7" recordCount="5.0">
                                        <SimplePredicate field="x7" operator="lessOrEqual" value="0.5091639012098312"/>
                                        <Node id="8" recordCount="4.0">
                                            <SimplePredicate field="x11" operator="lessOrEqual" value="-0.7084497660398483"/>
                                            <Node id="9" recordCount="3.0">
                                                <SimplePredicate field="x5" operator="lessOrEqual" value="-0.5358509197831154"/>
                                                <Node id="10" score="20.0" recordCount="2.0">
                                                    <SimplePredicate field="x7" operator="lessOrEqual" value="-0.6232868582010269"/>
                                                </Node>
                                                <Node id="11" score="18.0" recordCount="1.0">
                                                    <SimplePredicate field="x7" operator="greaterThan" value="-0.6232868582010269"/>
                                                </Node>
                                            </Node>
                                            <Node id="12" score="23.0" recordCount="1.0">
                                                <SimplePredicate field="x5" operator="greaterThan" value="-0.5358509197831154"/>
                                            </Node>
                                        </Node>
                                        <Node id="13" score="19.0" recordCount="1.0">
                                            <SimplePredicate field="x11" operator="greaterThan" value="-0.7084497660398483"/>
                                        </Node>
                                    </Node>
                                    <Node id="14" score="1.0" recordCount="1.0">
                                        <SimplePredicate field="x7" operator="greaterThan" value="0.5091639012098312"/>
                                    </Node>
                                </Node>
                            </Node>
                            <Node id="15" recordCount="43.0">
                                <SimplePredicate field="x10" operator="greaterThan" value="-0.9518883228302002"/>
                                <Node id="16" recordCount="6.0">
                                    <SimplePredicate field="x9" operator="lessOrEqual" value="-0.6929471045732498"/>
                                    <Node id="17" recordCount="5.0">
                                        <SimplePredicate field="x12" operator="lessOrEqual" value="2.108269989490509"/>
                                        <Node id="18" recordCount="2.0">
                                            <SimplePredicate field="x10" operator="lessOrEqual" value="-0.3764057606458664"/>
                                            <Node id="19" score="20.0" recordCount="1.0">
                                                <SimplePredicate field="x1" operator="lessOrEqual" value="-1.348806917667389"/>
                                            </Node>
                                            <Node id="20" score="21.0" recordCount="1.0">
                                                <SimplePredicate field="x1" operator="greaterThan" value="-1.348806917667389"/>
                                            </Node>
                                        </Node>
                                        <Node id="21" recordCount="3.0">
                                            <SimplePredicate field="x10" operator="greaterThan" value="-0.3764057606458664"/>
                                            <Node id="22" recordCount="2.0">
                                                <SimplePredicate field="x8" operator="lessOrEqual" value="0.2978949397802353"/>
                                                <Node id="23" score="4.0" recordCount="1.0">
                                                    <SimplePredicate field="x10" operator="lessOrEqual" value="0.5587534457445145"/>
                                                </Node>
                                                <Node id="24" score="13.0" recordCount="1.0">
                                                    <SimplePredicate field="x10" operator="greaterThan" value="0.5587534457445145"/>
                                                </Node>
                                            </Node>
                                            <Node id="25" score="14.0" recordCount="1.0">
                                                <SimplePredicate field="x8" operator="greaterThan" value="0.2978949397802353"/>
                                            </Node>
                                        </Node>
                                    </Node>
                                    <Node id="26" score="13.0" recordCount="1.0">
                                        <SimplePredicate field="x12" operator="greaterThan" value="2.108269989490509"/>
                                    </Node>
                                </Node>
                                <Node id="27" recordCount="37.0">
                                    <SimplePredicate field="x9" operator="greaterThan" value="-0.6929471045732498"/>
                                    <Node id="28" recordCount="20.0">
                                        <SimplePredicate field="x5" operator="lessOrEqual" value="0.184198759496212"/>
                                        <Node id="29" recordCount="14.0">
                                            <SimplePredicate field="x7" operator="lessOrEqual" value="0.13168032467365265"/>
                                            <Node id="30" recordCount="3.0">
                                                <SimplePredicate field="x10" operator="lessOrEqual" value="-0.3764057606458664"/>
                                                <Node id="31" recordCount="2.0">
                                                    <SimplePredicate field="x1" operator="lessOrEqual" value="-0.5126526802778244"/>
                                                    <Node id="32" score="23.0" recordCount="1.0">
                                                        <SimplePredicate field="x2" operator="lessOrEqual" value="-0.848113015294075"/>
                                                    </Node>
                                                    <Node id="33" score="27.0" recordCount="1.0">
                                                        <SimplePredicate field="x2" operator="greaterThan" value="-0.848113015294075"/>
                                                    </Node>
                                                </Node>
                                                <Node id="34" score="5.0" recordCount="1.0">
                                                    <SimplePredicate field="x1" operator="greaterThan" value="-0.5126526802778244"/>
                                                </Node>
                                            </Node>
                                            <Node id="35" recordCount="11.0">
                                                <SimplePredicate field="x10" operator="greaterThan" value="-0.3764057606458664"/>
                                                <Node id="36" recordCount="6.0">
                                                    <SimplePredicate field="x4" operator="lessOrEqual" value="0.615472212433815"/>
                                                    <Node id="37" recordCount="5.0">
                                                        <SimplePredicate field="x4" operator="lessOrEqual" value="-0.0631253570318222"/>
                                                        <Node id="38" recordCount="3.0">
                                                            <SimplePredicate field="x11" operator="lessOrEqual" value="0.6658362150192261"/>
                                                            <Node id="39" score="4.0" recordCount="2.0">
                                                                <SimplePredicate field="x11" operator="lessOrEqual" value="0.20774090010672808"/>
                                                            </Node>
                                                            <Node id="40" score="0.0" recordCount="1.0">
                                                                <SimplePredicate field="x11" operator="greaterThan" value="0.20774090010672808"/>
                                                            </Node>
                                                        </Node>
                                                        <Node id="41" recordCount="2.0">
                                                            <SimplePredicate field="x11" operator="greaterThan" value="0.6658362150192261"/>
                                                            <Node id="42" score="8.0" recordCount="1.0">
                                                                <SimplePredicate field="x1" operator="lessOrEqual" value="0.6022196114063263"/>
                                                            </Node>
                                                            <Node id="43" score="14.0" recordCount="1.0">
                                                                <SimplePredicate field="x1" operator="greaterThan" value="0.6022196114063263"/>
                                                            </Node>
                                                        </Node>
                                                    </Node>
                                                    <Node id="44" score="8.0" recordCount="1.0">
                                                        <SimplePredicate field="x4" operator="greaterThan" value="-0.0631253570318222"/>
                                                    </Node>
                                                </Node>
                                                <Node id="45" recordCount="5.0">
                                                    <SimplePredicate field="x4" operator="greaterThan" value="0.615472212433815"/>
                                                    <Node id="46" recordCount="3.0">
                                                        <SimplePredicate field="x10" operator="lessOrEqual" value="1.062300682067871"/>
                                                        <Node id="47" score="4.0" recordCount="1.0">
                                                            <SimplePredicate field="x8" operator="lessOrEqual" value="-0.37628841400146484"/>
                                                        </Node>
                                                        <Node id="48" recordCount="2.0">
                                                            <SimplePredicate field="x8" operator="greaterThan" value="-0.37628841400146484"/>
                                                            <Node id="49" score="13.0" recordCount="1.0">
                                                                <SimplePredicate field="x9" operator="lessOrEqual" value="1.2609365582466125"/>
                                                            </Node>
                                                            <Node id="50" score="12.0" recordCount="1.0">
                                                                <SimplePredicate field="x9" operator="greaterThan" value="1.2609365582466125"/>
                                                            </Node>
                                                        </Node>
                                                    </Node>
                                                    <Node id="51" recordCount="2.0">
                                                        <SimplePredicate field="x10" operator="greaterThan" value="1.062300682067871"/>
                                                        <Node id="52" score="16.0" recordCount="1.0">
                                                            <SimplePredicate field="x8" operator="lessOrEqual" value="-0.039196714758872986"/>
                                                        </Node>
                                                        <Node id="53" score="13.0" recordCount="1.0">
                                                            <SimplePredicate field="x8" operator="greaterThan" value="-0.039196714758872986"/>
                                                        </Node>
                                                    </Node>
                                                </Node>
                                            </Node>
                                        </Node>
                                        <Node id="54" recordCount="6.0">
                                            <SimplePredicate field="x7" operator="greaterThan" value="0.13168032467365265"/>
                                            <Node id="55" recordCount="3.0">
                                                <SimplePredicate field="x8" operator="lessOrEqual" value="0.6349866092205048"/>
                                                <Node id="56" score="7.0" recordCount="1.0">
                                                    <SimplePredicate field="x5" operator="lessOrEqual" value="-0.5358509197831154"/>
                                                </Node>
                                                <Node id="57" recordCount="2.0">
                                                    <SimplePredicate field="x5" operator="greaterThan" value="-0.5358509197831154"/>
                                                    <Node id="58" score="8.0" recordCount="1.0">
                                                        <SimplePredicate field="x4" operator="lessOrEqual" value="0.2761734127998352"/>
                                                    </Node>
                                                    <Node id="59" score="9.0" recordCount="1.0">
                                                        <SimplePredicate field="x4" operator="greaterThan" value="0.2761734127998352"/>
                                                    </Node>
                                                </Node>
                                            </Node>
                                            <Node id="60" recordCount="3.0">
                                                <SimplePredicate field="x8" operator="greaterThan" value="0.6349866092205048"/>
                                                <Node id="61" score="9.0" recordCount="1.0">
                                                    <SimplePredicate field="x3" operator="lessOrEqual" value="-0.5443857135251164"/>
                                                </Node>
                                                <Node id="62" score="4.0" recordCount="2.0">
                                                    <SimplePredicate field="x3" operator="greaterThan" value="-0.5443857135251164"/>
                                                </Node>
                                            </Node>
                                        </Node>
                                    </Node>
                                    <Node id="63" recordCount="17.0">
                                        <SimplePredicate field="x5" operator="greaterThan" value="0.184198759496212"/>
                                        <Node id="64" recordCount="7.0">
                                            <SimplePredicate field="x1" operator="lessOrEqual" value="0.27282552048563957"/>
                                            <Node id="65" recordCount="2.0">
                                                <SimplePredicate field="x9" operator="lessOrEqual" value="-0.20447620190680027"/>
                                                <Node id="66" score="4.0" recordCount="1.0">
                                                    <SimplePredicate field="x11" operator="lessOrEqual" value="-0.02130676805973053"/>
                                                </Node>
                                                <Node id="67" score="3.0" recordCount="1.0">
                                                    <SimplePredicate field="x11" operator="greaterThan" value="-0.02130676805973053"/>
                                                </Node>
                                            </Node>
                                            <Node id="68" recordCount="5.0">
                                                <SimplePredicate field="x9" operator="greaterThan" value="-0.20447620190680027"/>
                                                <Node id="69" score="8.0" recordCount="1.0">
                                                    <SimplePredicate field="x7" operator="lessOrEqual" value="-0.6232868582010269"/>
                                                </Node>
                                                <Node id="70" recordCount="4.0">
                                                    <SimplePredicate field="x7" operator="greaterThan" value="-0.6232868582010269"/>
                                                    <Node id="71" recordCount="3.0">
                                                        <SimplePredicate field="x9" operator="lessOrEqual" value="0.2839947249740362"/>
                                                        <Node id="72" score="3.0" recordCount="1.0">
                                                            <SimplePredicate field="x4" operator="lessOrEqual" value="-0.06312540173530579"/>
                                                        </Node>
                                                        <Node id="73" recordCount="2.0">
                                                            <SimplePredicate field="x4" operator="greaterThan" value="-0.06312540173530579"/>
                                                            <Node id="74" score="7.0" recordCount="1.0">
                                                                <SimplePredicate field="x7" operator="lessOrEqual" value="0.13168032467365265"/>
                                                            </Node>
                                                            <Node id="75" score="8.0" recordCount="1.0">
                                                                <SimplePredicate field="x7" operator="greaterThan" value="0.13168032467365265"/>
                                                            </Node>
                                                        </Node>
                                                    </Node>
                                                    <Node id="76" score="4.0" recordCount="1.0">
                                                        <SimplePredicate field="x9" operator="greaterThan" value="0.2839947249740362"/>
                                                    </Node>
                                                </Node>
                                            </Node>
                                        </Node>
                                        <Node id="77" recordCount="10.0">
                                            <SimplePredicate field="x1" operator="greaterThan" value="0.27282552048563957"/>
                                            <Node id="78" recordCount="4.0">
                                                <SimplePredicate field="x10" operator="lessOrEqual" value="0.9903653860092163"/>
                                                <Node id="79" recordCount="3.0">
                                                    <SimplePredicate field="x6" operator="lessOrEqual" value="0.268618430942297"/>
                                                    <Node id="80" score="15.0" recordCount="1.0">
                                                        <SimplePredicate field="x11" operator="lessOrEqual" value="0.43678854405879974"/>
                                                    </Node>
                                                    <Node id="81" recordCount="2.0">
                                                        <SimplePredicate field="x11" operator="greaterThan" value="0.43678854405879974"/>
                                                        <Node id="82" score="14.0" recordCount="1.0">
                                                            <SimplePredicate field="x1" operator="lessOrEqual" value="0.7795856148004532"/>
                                                        </Node>
                                                        <Node id="83" score="13.0" recordCount="1.0">
                                                            <SimplePredicate field="x1" operator="greaterThan" value="0.7795856148004532"/>
                                                        </Node>
                                                    </Node>
                                                </Node>
                                                <Node id="84" score="10.0" recordCount="1.0">
                                                    <SimplePredicate field="x6" operator="greaterThan" value="0.268618430942297"/>
                                                </Node>
                                            </Node>
                                            <Node id="85" recordCount="6.0">
                                                <SimplePredicate field="x10" operator="greaterThan" value="0.9903653860092163"/>
                                                <Node id="86" recordCount="5.0">
                                                    <SimplePredicate field="x4" operator="lessOrEqual" value="0.615472212433815"/>
                                                    <Node id="87" score="11.0" recordCount="1.0">
                                                        <SimplePredicate field="x1" operator="lessOrEqual" value="0.8555996417999268"/>
                                                    </Node>
                                                    <Node id="88" recordCount="4.0">
                                                        <SimplePredicate field="x1" operator="greaterThan" value="0.8555996417999268"/>
                                                        <Node id="89" score="14.0" recordCount="1.0">
                                                            <SimplePredicate field="x10" operator="lessOrEqual" value="1.6377832889556885"/>
                                                        </Node>
                                                        <Node id="90" score="15.0" recordCount="3.0">
                                                            <SimplePredicate field="x10" operator="greaterThan" value="1.6377832889556885"/>
                                                        </Node>
                                                    </Node>
                                                </Node>
                                                <Node id="91" score="16.0" recordCount="1.0">
                                                    <SimplePredicate field="x4" operator="greaterThan" value="0.615472212433815"/>
                                                </Node>
                                            </Node>
                                        </Node>
                                    </Node>
                                </Node>
                            </Node>
                        </Node>
                        <Node id="92" recordCount="2.0">
                            <SimplePredicate field="x6" operator="greaterThan" value="1.808697521686554"/>
                            <Node id="93" score="28.0" recordCount="1.0">
                                <SimplePredicate field="x8" operator="lessOrEqual" value="1.6462617069482803"/>
                            </Node>
                            <Node id="94" score="16.0" recordCount="1.0">
                                <SimplePredicate field="x8" operator="greaterThan" value="1.6462617069482803"/>
                            </Node>
                        </Node>
                    </Node>
                </TreeModel>
            </Segment>
            <Segment id="1" weight="1">
                <True/>
                <TreeModel modelName="decisionTree_Model" functionName="regression" missingValuePenalty="1.0">
                    <MiningSchema>
                        <MiningField name="x1" usageType="active"/>
                        <MiningField name="x2" usageType="active"/>
                        <MiningField name="x3" usageType="active"/>
                        <MiningField name="x4" usageType="active"/>
                        <MiningField name="x5" usageType="active"/>
                        <MiningField name="x6" usageType="active"/>
                        <MiningField name="x7" usageType="active"/>
                        <MiningField name="x8" usageType="active"/>
                        <MiningField name="x9" usageType="active"/>
                        <MiningField name="x10" usageType="active"/>
                        <MiningField name="x11" usageType="active"/>
                        <MiningField name="x12" usageType="active"/>
                        <MiningField name="x13" usageType="active"/>
                        <MiningField name="x14" usageType="active"/>
                        <MiningField name="x15" usageType="active"/>
                        <MiningField name="x16" usageType="active"/>
                        <MiningField name="x17" usageType="active"/>
                        <MiningField name="x18" usageType="active"/>
                        <MiningField name="x19" usageType="active"/>
                        <MiningField name="x20" usageType="active"/>
                        <MiningField name="x21" usageType="active"/>
                        <MiningField name="x22" usageType="active"/>
                        <MiningField name="x23" usageType="active"/>
                        <MiningField name="x24" usageType="active"/>
                    </MiningSchema>
                    <Node id="0" recordCount="53.0">
                        <True/>
                        <Node id="1" recordCount="28.0">
                            <SimplePredicate field="x3" operator="lessOrEqual" value="-0.2842903258278966"/>
                            <Node id="2" recordCount="13.0">
                                <SimplePredicate field="x11" operator="lessOrEqual" value="-0.7084497660398483"/>
                                <Node id="3" recordCount="9.0">
                                    <SimplePredicate field="x3" operator="lessOrEqual" value="-0.8044811189174652"/>
                                    <Node id="4" recordCount="8.0">
                                        <SimplePredicate field="x1" operator="lessOrEqual" value="-0.8673847913742065"/>
                                        <Node id="5" recordCount="6.0">
                                            <SimplePredicate field="x5" operator="lessOrEqual" value="-0.5358509197831154"/>
                                            <Node id="6" recordCount="3.0">
                                                <SimplePredicate field="x9" operator="lessOrEqual" value="-1.181418001651764"/>
                                                <Node id="7" score="20.0" recordCount="1.0">
                                                    <SimplePredicate field="x11" operator="lessOrEqual" value="-1.1665451228618622"/>
                                                </Node>
                                                <Node id="8" recordCount="2.0">
                                                    <SimplePredicate field="x11" operator="greaterThan" value="-1.1665451228618622"/>
                                                    <Node id="9" score="20.0" recordCount="1.0">
                                                        <SimplePredicate field="x1" operator="lessOrEqual" value="-1.4754969477653503"/>
                                                    </Node>
                                                    <Node id="10" score="18.0" recordCount="1.0">
                                                        <SimplePredicate field="x1" operator="greaterThan" value="-1.4754969477653503"/>
                                                    </Node>
                                                </Node>
                                            </Node>
                                            <Node id="11" recordCount="3.0">
                                                <SimplePredicate field="x9" operator="greaterThan" value="-1.181418001651764"/>
                                                <Node id="12" recordCount="2.0">
                                                    <SimplePredicate field="x1" operator="lessOrEqual" value="-1.3234689235687256"/>
                                                    <Node id="13" score="20.0" recordCount="1.0">
                                                        <SimplePredicate field="x1" operator="lessOrEqual" value="-1.3994829654693604"/>
                                                    </Node>
                                                    <Node id="14" score="25.0" recordCount="1.0">
                                                        <SimplePredicate field="x1" operator="greaterThan" value="-1.3994829654693604"/>
                                                    </Node>
                                                </Node>
                                                <Node id="15" score="19.0" recordCount="1.0">
                                                    <SimplePredicate field="x1" operator="greaterThan" value="-1.3234689235687256"/>
                                                </Node>
                                            </Node>
                                        </Node>
                                        <Node id="16" recordCount="2.0">
                                            <SimplePredicate field="x5" operator="greaterThan" value="-0.5358509197831154"/>
                                            <Node id="17" score="20.0" recordCount="1.0">
                                                <SimplePredicate field="x9" operator="lessOrEqual" value="-1.181418001651764"/>
                                            </Node>
                                            <Node id="18" score="23.0" recordCount="1.0">
                                                <SimplePredicate field="x9" operator="greaterThan" value="-1.181418001651764"/>
                                            </Node>
                                        </Node>
                                    </Node>
                                    <Node id="19" score="4.0" recordCount="1.0">
                                        <SimplePredicate field="x1" operator="greaterThan" value="-0.8673847913742065"/>
                                    </Node>
                                </Node>
                                <Node id="20" recordCount="4.0">
                                    <SimplePredicate field="x3" operator="greaterThan" value="-0.8044811189174652"/>
                                    <Node id="21" recordCount="2.0">
                                        <SimplePredicate field="x2" operator="lessOrEqual" value="-0.323381245136261"/>
                                        <Node id="22" score="23.0" recordCount="1.0">
                                            <SimplePredicate field="x2" operator="lessOrEqual" value="-1.110478937625885"/>
                                        </Node>
                                        <Node id="23" score="22.0" recordCount="1.0">
                                            <SimplePredicate field="x2" operator="greaterThan" value="-1.110478937625885"/>
                                        </Node>
                                    </Node>
                                    <Node id="24" recordCount="2.0">
                                        <SimplePredicate field="x2" operator="greaterThan" value="-0.323381245136261"/>
                                        <Node id="25" score="26.0" recordCount="1.0">
                                            <SimplePredicate field="x11" operator="lessOrEqual" value="-1.1665451228618622"/>
                                        </Node>
                                        <Node id="26" score="28.0" recordCount="1.0">
                                            <SimplePredicate field="x11" operator="greaterThan" value="-1.1665451228618622"/>
                                        </Node>
                                    </Node>
                                </Node>
                            </Node>
                            <Node id="27" recordCount="15.0">
                                <SimplePredicate field="x11" operator="greaterThan" value="-0.7084497660398483"/>
                                <Node id="28" recordCount="13.0">
                                    <SimplePredicate field="x6" operator="lessOrEqual" value="0.268618430942297"/>
                                    <Node id="29" recordCount="7.0">
                                        <SimplePredicate field="x11" operator="lessOrEqual" value="0.20774090010672808"/>
                                        <Node id="30" recordCount="5.0">
                                            <SimplePredicate field="x8" operator="lessOrEqual" value="-0.039196714758872986"/>
                                            <Node id="31" recordCount="4.0">
                                                <SimplePredicate field="x5" operator="lessOrEqual" value="0.5442235991358757"/>
                                                <Node id="32" recordCount="2.0">
                                                    <SimplePredicate field="x1" operator="lessOrEqual" value="-1.1714408695697784"/>
                                                    <Node id="33" score="20.0" recordCount="1.0">
                                                        <SimplePredicate field="x2" operator="lessOrEqual" value="-1.110478937625885"/>
                                                    </Node>
                                                    <Node id="34" score="19.0" recordCount="1.0">
                                                        <SimplePredicate field="x2" operator="greaterThan" value="-1.110478937625885"/>
                                                    </Node>
                                                </Node>
                                                <Node id="35" score="28.0" recordCount="2.0">
                                                    <SimplePredicate field="x1" operator="greaterThan" value="-1.1714408695697784"/>
                                                </Node>
                                            </Node>
                                            <Node id="36" score="4.0" recordCount="1.0">
                                                <SimplePredicate field="x5" operator="greaterThan" value="0.5442235991358757"/>
                                            </Node>
                                        </Node>
                                        <Node id="37" recordCount="2.0">
                                            <SimplePredicate field="x8" operator="greaterThan" value="-0.039196714758872986"/>
                                            <Node id="38" score="4.0" recordCount="1.0">
                                                <SimplePredicate field="x10" operator="lessOrEqual" value="-0.8080176264047623"/>
                                            </Node>
                                            <Node id="39" score="9.0" recordCount="1.0">
                                                <SimplePredicate field="x10" operator="greaterThan" value="-0.8080176264047623"/>
                                            </Node>
                                        </Node>
                                    </Node>
                                    <Node id="40" recordCount="6.0">
                                        <SimplePredicate field="x11" operator="greaterThan" value="0.20774090010672808"/>
                                        <Node id="41" score="8.0" recordCount="1.0">
                                            <SimplePredicate field="x8" operator="lessOrEqual" value="-0.37628841400146484"/>
                                        </Node>
                                        <Node id="42" recordCount="5.0">
                                            <SimplePredicate field="x8" operator="greaterThan" value="-0.37628841400146484"/>
                                            <Node id="43" score="6.0" recordCount="1.0">
                                                <SimplePredicate field="x11" operator="lessOrEqual" value="0.6658362150192261"/>
                                            </Node>
                                            <Node id="44" recordCount="4.0">
                                                <SimplePredicate field="x11" operator="greaterThan" value="0.6658362150192261"/>
                                                <Node id="45" score="14.0" recordCount="1.0">
                                                    <SimplePredicate field="x5" operator="lessOrEqual" value="-0.5358509197831154"/>
                                                </Node>
                                                <Node id="46" recordCount="3.0">
                                                    <SimplePredicate field="x5" operator="greaterThan" value="-0.5358509197831154"/>
                                                    <Node id="47" score="13.0" recordCount="1.0">
                                                        <SimplePredicate field="x3" operator="lessOrEqual" value="-0.8044811189174652"/>
                                                    </Node>
                                                    <Node id="48" score="8.0" recordCount="2.0">
                                                        <SimplePredicate field="x3" operator="greaterThan" value="-0.8044811189174652"/>
                                                    </Node>
                                                </Node>
                                            </Node>
                                        </Node>
                                    </Node>
                                </Node>
                                <Node id="49" recordCount="2.0">
                                    <SimplePredicate field="x6" operator="greaterThan" value="0.268618430942297"/>
                                    <Node id="50" score="3.0" recordCount="1.0">
                                        <SimplePredicate field="x10" operator="lessOrEqual" value="-0.16059979796409607"/>
                                    </Node>
                                    <Node id="51" score="7.0" recordCount="1.0">
                                        <SimplePredicate field="x10" operator="greaterThan" value="-0.16059979796409607"/>
                                    </Node>
                                </Node>
                            </Node>
                        </Node>
                        <Node id="52" recordCount="25.0">
                            <SimplePredicate field="x3" operator="greaterThan" value="-0.2842903258278966"/>
                            <Node id="53" recordCount="13.0">
                                <SimplePredicate field="x1" operator="lessOrEqual" value="0.4248535633087158"/>
                                <Node id="54" recordCount="5.0">
                                    <SimplePredicate field="x9" operator="lessOrEqual" value="-0.20447620190680027"/>
                                    <Node id="55" recordCount="4.0">
                                        <SimplePredicate field="x1" operator="lessOrEqual" value="-0.3352866396307945"/>
                                        <Node id="56" recordCount="3.0">
                                            <SimplePredicate field="x1" operator="lessOrEqual" value="-0.5633286833763123"/>
                                            <Node id="57" score="4.0" recordCount="2.0">
                                                <SimplePredicate field="x2" operator="lessOrEqual" value="0.726082369685173"/>
                                            </Node>
                                            <Node id="58" score="3.0" recordCount="1.0">
                                                <SimplePredicate field="x2" operator="greaterThan" value="0.726082369685173"/>
                                            </Node>
                                        </Node>
                                        <Node id="59" score="1.0" recordCount="1.0">
                                            <SimplePredicate field="x1" operator="greaterThan" value="-0.5633286833763123"/>
                                        </Node>
                                    </Node>
                                    <Node id="60" score="4.0" recordCount="1.0">
                                        <SimplePredicate field="x1" operator="greaterThan" value="-0.3352866396307945"/>
                                    </Node>
                                </Node>
                                <Node id="61" recordCount="8.0">
                                    <SimplePredicate field="x9" operator="greaterThan" value="-0.20447620190680027"/>
                                    <Node id="62" recordCount="5.0">
                                        <SimplePredicate field="x4" operator="lessOrEqual" value="-0.741722971200943"/>
                                        <Node id="63" recordCount="2.0">
                                            <SimplePredicate field="x2" operator="lessOrEqual" value="-0.06101532280445099"/>
                                            <Node id="64" score="5.0" recordCount="1.0">
                                                <SimplePredicate field="x11" operator="lessOrEqual" value="-0.2503544269129634"/>
                                            </Node>
                                            <Node id="65" score="4.0" recordCount="1.0">
                                                <SimplePredicate field="x11" operator="greaterThan" value="-0.2503544269129634"/>
                                            </Node>
                                        </Node>
                                        <Node id="66" recordCount="3.0">
                                            <SimplePredicate field="x2" operator="greaterThan" value="-0.06101532280445099"/>
                                            <Node id="67" recordCount="2.0">
                                                <SimplePredicate field="x8" operator="lessOrEqual" value="0.9720783233642578"/>
                                                <Node id="68" score="6.0" recordCount="1.0">
                                                    <SimplePredicate field="x3" operator="lessOrEqual" value="0.2359004793688655"/>
                                                </Node>
                                                <Node id="69" score="8.0" recordCount="1.0">
                                                    <SimplePredicate field="x3" operator="greaterThan" value="0.2359004793688655"/>
                                                </Node>
                                            </Node>
                                            <Node id="70" score="4.0" recordCount="1.0">
                                                <SimplePredicate field="x8" operator="greaterThan" value="0.9720783233642578"/>
                                            </Node>
                                        </Node>
                                    </Node>
                                    <Node id="71" recordCount="3.0">
                                        <SimplePredicate field="x4" operator="greaterThan" value="-0.741722971200943"/>
                                        <Node id="72" recordCount="2.0">
                                            <SimplePredicate field="x10" operator="lessOrEqual" value="0.12714147567749023"/>
                                            <Node id="73" score="8.0" recordCount="1.0">
                                                <SimplePredicate field="x1" operator="lessOrEqual" value="-0.1072445884346962"/>
                                            </Node>
                                            <Node id="74" score="7.0" recordCount="1.0">
                                                <SimplePredicate field="x1" operator="greaterThan" value="-0.1072445884346962"/>
                                            </Node>
                                        </Node>
                                        <Node id="75" score="8.0" recordCount="1.0">
                                            <SimplePredicate field="x10" operator="greaterThan" value="0.12714147567749023"/>
                                        </Node>
                                    </Node>
                                </Node>
                            </Node>
                            <Node id="76" recordCount="12.0">
                                <SimplePredicate field="x1" operator="greaterThan" value="0.4248535633087158"/>
                                <Node id="77" recordCount="9.0">
                                    <SimplePredicate field="x3" operator="lessOrEqual" value="1.79647296667099"/>
                                    <Node id="78" recordCount="6.0">
                                        <SimplePredicate field="x10" operator="lessOrEqual" value="1.1342360377311707"/>
                                        <Node id="79" score="8.0" recordCount="1.0">
                                            <SimplePredicate field="x1" operator="lessOrEqual" value="0.6528956145048141"/>
                                        </Node>
                                        <Node id="80" recordCount="5.0">
                                            <SimplePredicate field="x1" operator="greaterThan" value="0.6528956145048141"/>
                                            <Node id="81" recordCount="4.0">
                                                <SimplePredicate field="x6" operator="lessOrEqual" value="1.0386579930782318"/>
                                                <Node id="82" recordCount="3.0">
                                                    <SimplePredicate field="x2" operator="lessOrEqual" value="1.5131800174713135"/>
                                                    <Node id="83" score="12.0" recordCount="1.0">
                                                        <SimplePredicate field="x5" operator="lessOrEqual" value="0.184198759496212"/>
                                                    </Node>
                                                    <Node id="84" score="13.0" recordCount="2.0">
                                                        <SimplePredicate field="x5" operator="greaterThan" value="0.184198759496212"/>
                                                    </Node>
                                                </Node>
                                                <Node id="85" score="15.0" recordCount="1.0">
                                                    <SimplePredicate field="x2" operator="greaterThan" value="1.5131800174713135"/>
                                                </Node>
                                            </Node>
                                            <Node id="86" score="14.0" recordCount="1.0">
                                                <SimplePredicate field="x6" operator="greaterThan" value="1.0386579930782318"/>
                                            </Node>
                                        </Node>
                                    </Node>
                                    <Node id="87" recordCount="3.0">
                                        <SimplePredicate field="x10" operator="greaterThan" value="1.1342360377311707"/>
                                        <Node id="88" recordCount="2.0">
                                            <SimplePredicate field="x4" operator="lessOrEqual" value="0.615472212433815"/>
                                            <Node id="89" score="14.0" recordCount="1.0">
                                                <SimplePredicate field="x1" operator="lessOrEqual" value="1.3116837441921234"/>
                                            </Node>
                                            <Node id="90" score="15.0" recordCount="1.0">
                                                <SimplePredicate field="x1" operator="greaterThan" value="1.3116837441921234"/>
                                            </Node>
                                        </Node>
                                        <Node id="91" score="13.0" recordCount="1.0">
                                            <SimplePredicate field="x4" operator="greaterThan" value="0.615472212433815"/>
                                        </Node>
                                    </Node>
                                </Node>
                                <Node id="92" recordCount="3.0">
                                    <SimplePredicate field="x3" operator="greaterThan" value="1.79647296667099"/>
                                    <Node id="93" score="14.0" recordCount="2.0">
                                        <SimplePredicate field="x6" operator="lessOrEqual" value="0.6536382399499416"/>
                                    </Node>
                                    <Node id="94" score="16.0" recordCount="1.0">
                                        <SimplePredicate field="x6" operator="greaterThan" value="0.6536382399499416"/>
                                    </Node>
                                </Node>
                            </Node>
                        </Node>
                    </Node>
                </TreeModel>
            </Segment>
            <Segment id="2" weight="1">
                <True/>
                <TreeModel modelName="decisionTree_Model" functionName="regression" missingValuePenalty="1.0">
                    <MiningSchema>
                        <MiningField name="x1" usageType="active"/>
                        <MiningField name="x2" usageType="active"/>
                        <MiningField name="x3" usageType="active"/>
                        <MiningField name="x4" usageType="active"/>
                        <MiningField name="x5" usageType="active"/>
                        <MiningField name="x6" usageType="active"/>
                        <MiningField name="x7" usageType="active"/>
                        <MiningField name="x8" usageType="active"/>
                        <MiningField name="x9" usageType="active"/>
                        <MiningField name="x10" usageType="active"/>
                        <MiningField name="x11" usageType="active"/>
                        <MiningField name="x12" usageType="active"/>
                        <MiningField name="x13" usageType="active"/>
                        <MiningField name="x14" usageType="active"/>
                        <MiningField name="x15" usageType="active"/>
                        <MiningField name="x16" usageType="active"/>
                        <MiningField name="x17" usageType="active"/>
                        <MiningField name="x18" usageType="active"/>
                        <MiningField name="x19" usageType="active"/>
                        <MiningField name="x20" usageType="active"/>
                        <MiningField name="x21" usageType="active"/>
                        <MiningField name="x22" usageType="active"/>
                        <MiningField name="x23" usageType="active"/>
                        <MiningField name="x24" usageType="active"/>
                    </MiningSchema>
                    <Node id="0" recordCount="54.0">
                        <True/>
                        <Node id="1" recordCount="14.0">
                            <SimplePredicate field="x11" operator="lessOrEqual" value="-0.7084497660398483"/>
                            <Node id="2" recordCount="11.0">
                                <SimplePredicate field="x6" operator="lessOrEqual" value="0.268618430942297"/>
                                <Node id="3" recordCount="10.0">
                                    <SimplePredicate field="x3" operator="lessOrEqual" value="0.75609131436795"/>
                                    <Node id="4" recordCount="9.0">
                                        <SimplePredicate field="x12" operator="lessOrEqual" value="0.8831941485404968"/>
                                        <Node id="5" recordCount="7.0">
                                            <SimplePredicate field="x5" operator="lessOrEqual" value="-0.5358509197831154"/>
                                            <Node id="6" recordCount="6.0">
                                                <SimplePredicate field="x1" operator="lessOrEqual" value="-1.0954268276691437"/>
                                                <Node id="7" recordCount="5.0">
                                                    <SimplePredicate field="x8" operator="lessOrEqual" value="-0.7133800834417343"/>
                                                    <Node id="8" recordCount="4.0">
                                                        <SimplePredicate field="x3" operator="lessOrEqual" value="-0.5443857135251164"/>
                                                        <Node id="9" recordCount="3.0">
                                                            <SimplePredicate field="x2" operator="lessOrEqual" value="-0.06101532280445099"/>
                                                            <Node id="10" score="20.0" recordCount="2.0">
                                                                <SimplePredicate field="x6" operator="lessOrEqual" value="-0.5014210678637028"/>
                                                            </Node>
                                                            <Node id="11" score="19.0" recordCount="1.0">
                                                                <SimplePredicate field="x6" operator="greaterThan" value="-0.5014210678637028"/>
                                                            </Node>
                                                        </Node>
                                                        <Node id="12" score="18.0" recordCount="1.0">
                                                            <SimplePredicate field="x2" operator="greaterThan" value="-0.06101532280445099"/>
                                                        </Node>
                                                    </Node>
                                                    <Node id="13" score="20.0" recordCount="1.0">
                                                        <SimplePredicate field="x3" operator="greaterThan" value="-0.5443857135251164"/>
                                                    </Node>
                                                </Node>
                                                <Node id="14" score="20.0" recordCount="1.0">
                                                    <SimplePredicate field="x8" operator="greaterThan" value="-0.7133800834417343"/>
                                                </Node>
                                            </Node>
                                            <Node id="15" score="23.0" recordCount="1.0">
                                                <SimplePredicate field="x1" operator="greaterThan" value="-1.0954268276691437"/>
                                            </Node>
                                        </Node>
                                        <Node id="16" score="20.0" recordCount="2.0">
                                            <SimplePredicate field="x5" operator="greaterThan" value="-0.5358509197831154"/>
                                        </Node>
                                    </Node>
                                    <Node id="17" score="28.0" recordCount="1.0">
                                        <SimplePredicate field="x12" operator="greaterThan" value="0.8831941485404968"/>
                                    </Node>
                                </Node>
                                <Node id="18" score="8.0" recordCount="1.0">
                                    <SimplePredicate field="x3" operator="greaterThan" value="0.75609131436795"/>
                                </Node>
                            </Node>
                            <Node id="19" recordCount="3.0">
                                <SimplePredicate field="x6" operator="greaterThan" value="0.268618430942297"/>
                                <Node id="20" score="27.0" recordCount="1.0">
                                    <SimplePredicate field="x3" operator="lessOrEqual" value="-0.8044811189174652"/>
                                </Node>
                                <Node id="21" recordCount="2.0">
                                    <SimplePredicate field="x3" operator="greaterThan" value="-0.8044811189174652"/>
                                    <Node id="22" score="3.0" recordCount="1.0">
                                        <SimplePredicate field="x9" operator="lessOrEqual" value="0.2839947249740362"/>
                                    </Node>
                                    <Node id="23" score="4.0" recordCount="1.0">
                                        <SimplePredicate field="x9" operator="greaterThan" value="0.2839947249740362"/>
                                    </Node>
                                </Node>
                            </Node>
                        </Node>
                        <Node id="24" recordCount="40.0">
                            <SimplePredicate field="x11" operator="greaterThan" value="-0.7084497660398483"/>
                            <Node id="25" recordCount="25.0">
                                <SimplePredicate field="x9" operator="lessOrEqual" value="0.7724656462669373"/>
                                <Node id="26" recordCount="21.0">
                                    <SimplePredicate field="x10" operator="lessOrEqual" value="1.062300682067871"/>
                                    <Node id="27" recordCount="20.0">
                                        <SimplePredicate field="x2" operator="lessOrEqual" value="1.77554589509964"/>
                                        <Node id="28" recordCount="19.0">
                                            <SimplePredicate field="x6" operator="lessOrEqual" value="1.0386579930782318"/>
                                            <Node id="29" score="21.0" recordCount="1.0">
                                                <SimplePredicate field="x1" operator="lessOrEqual" value="-1.1207648515701294"/>
                                            </Node>
                                            <Node id="30" recordCount="18.0">
                                                <SimplePredicate field="x1" operator="greaterThan" value="-1.1207648515701294"/>
                                                <Node id="31" recordCount="9.0">
                                                    <SimplePredicate field="x1" operator="lessOrEqual" value="-0.18325860612094402"/>
                                                    <Node id="32" recordCount="5.0">
                                                        <SimplePredicate field="x3" operator="lessOrEqual" value="-0.2842903258278966"/>
                                                        <Node id="33" recordCount="4.0">
                                                            <SimplePredicate field="x11" operator="lessOrEqual" value="1.3529791831970215"/>
                                                            <Node id="34" recordCount="3.0">
                                                                <SimplePredicate field="x12" operator="lessOrEqual" value="2.108269989490509"/>
                                                                <Node id="35" recordCount="2.0">
                                                                    <SimplePredicate field="x6" operator="lessOrEqual" value="-0.1164013147354126"/>
                                                                    <Node id="36" score="4.0" recordCount="1.0">
                                                                        <SimplePredicate field="x2" operator="lessOrEqual" value="-0.06101532280445099"/>
                                                                    </Node>
                                                                    <Node id="37" score="6.0" recordCount="1.0">
                                                                        <SimplePredicate field="x2" operator="greaterThan" value="-0.06101532280445099"/>
                                                                    </Node>
                                                                </Node>
                                                                <Node id="38" score="3.0" recordCount="1.0">
                                                                    <SimplePredicate field="x6" operator="greaterThan" value="-0.1164013147354126"/>
                                                                </Node>
                                                            </Node>
                                                            <Node id="39" score="2.0" recordCount="1.0">
                                                                <SimplePredicate field="x12" operator="greaterThan" value="2.108269989490509"/>
                                                            </Node>
                                                        </Node>
                                                        <Node id="40" score="8.0" recordCount="1.0">
                                                            <SimplePredicate field="x11" operator="greaterThan" value="1.3529791831970215"/>
                                                        </Node>
                                                    </Node>
                                                    <Node id="41" recordCount="4.0">
                                                        <SimplePredicate field="x3" operator="greaterThan" value="-0.2842903258278966"/>
                                                        <Node id="42" score="0.0" recordCount="1.0">
                                                            <SimplePredicate field="x1" operator="lessOrEqual" value="-0.9180607795715332"/>
                                                        </Node>
                                                        <Node id="43" recordCount="3.0">
                                                            <SimplePredicate field="x1" operator="greaterThan" value="-0.9180607795715332"/>
                                                            <Node id="44" recordCount="2.0">
                                                                <SimplePredicate field="x11" operator="lessOrEqual" value="-0.2503544269129634"/>
                                                                <Node id="45" score="5.0" recordCount="1.0">
                                                                    <SimplePredicate field="x2" operator="lessOrEqual" value="-0.06101536750793457"/>
                                                                </Node>
                                                                <Node id="46" score="4.0" recordCount="1.0">
                                                                    <SimplePredicate field="x2" operator="greaterThan" value="-0.06101536750793457"/>
                                                                </Node>
                                                            </Node>
                                                            <Node id="47" score="4.0" recordCount="1.0">
                                                                <SimplePredicate field="x11" operator="greaterThan" value="-0.2503544269129634"/>
                                                            </Node>
                                                        </Node>
                                                    </Node>
                                                </Node>
                                                <Node id="48" recordCount="9.0">
                                                    <SimplePredicate field="x1" operator="greaterThan" value="-0.18325860612094402"/>
                                                    <Node id="49" recordCount="6.0">
                                                        <SimplePredicate field="x5" operator="lessOrEqual" value="0.184198759496212"/>
                                                        <Node id="50" recordCount="5.0">
                                                            <SimplePredicate field="x1" operator="lessOrEqual" value="0.8555996716022491"/>
                                                            <Node id="51" score="8.0" recordCount="2.0">
                                                                <SimplePredicate field="x7" operator="lessOrEqual" value="0.13168032467365265"/>
                                                            </Node>
                                                            <Node id="52" recordCount="3.0">
                                                                <SimplePredicate field="x7" operator="greaterThan" value="0.13168032467365265"/>
                                                                <Node id="53" recordCount="2.0">
                                                                    <SimplePredicate field="x10" operator="lessOrEqual" value="0.6306887269020081"/>
                                                                    <Node id="54" score="8.0" recordCount="1.0">
                                                                        <SimplePredicate field="x9" operator="lessOrEqual" value="-0.20447620190680027"/>
                                                                    </Node>
                                                                    <Node id="55" score="9.0" recordCount="1.0">
                                                                        <SimplePredicate field="x9" operator="greaterThan" value="-0.20447620190680027"/>
                                                                    </Node>
                                                                </Node>
                                                                <Node id="56" score="9.0" recordCount="1.0">
                                                                    <SimplePredicate field="x10" operator="greaterThan" value="0.6306887269020081"/>
                                                                </Node>
                                                            </Node>
                                                        </Node>
                                                        <Node id="57" score="13.0" recordCount="1.0">
                                                            <SimplePredicate field="x1" operator="greaterThan" value="0.8555996716022491"/>
                                                        </Node>
                                                    </Node>
                                                    <Node id="58" recordCount="3.0">
                                                        <SimplePredicate field="x5" operator="greaterThan" value="0.184198759496212"/>
                                                        <Node id="59" score="7.0" recordCount="1.0">
                                                            <SimplePredicate field="x7" operator="lessOrEqual" value="0.13168032467365265"/>
                                                        </Node>
                                                        <Node id="60" score="8.0" recordCount="2.0">
                                                            <SimplePredicate field="x7" operator="greaterThan" value="0.13168032467365265"/>
                                                        </Node>
                                                    </Node>
                                                </Node>
                                            </Node>
                                        </Node>
                                        <Node id="61" score="13.0" recordCount="1.0">
                                            <SimplePredicate field="x6" operator="greaterThan" value="1.0386579930782318"/>
                                        </Node>
                                    </Node>
                                    <Node id="62" score="14.0" recordCount="1.0">
                                        <SimplePredicate field="x2" operator="greaterThan" value="1.77554589509964"/>
                                    </Node>
                                </Node>
                                <Node id="63" recordCount="4.0">
                                    <SimplePredicate field="x10" operator="greaterThan" value="1.062300682067871"/>
                                    <Node id="64" recordCount="3.0">
                                        <SimplePredicate field="x1" operator="lessOrEqual" value="1.3876977562904358"/>
                                        <Node id="65" recordCount="2.0">
                                            <SimplePredicate field="x8" operator="lessOrEqual" value="0.2978949397802353"/>
                                            <Node id="66" score="13.0" recordCount="1.0">
                                                <SimplePredicate field="x6" operator="lessOrEqual" value="1.0386579930782318"/>
                                            </Node>
                                            <Node id="67" score="14.0" recordCount="1.0">
                                                <SimplePredicate field="x6" operator="greaterThan" value="1.0386579930782318"/>
                                            </Node>
                                        </Node>
                                        <Node id="68" score="14.0" recordCount="1.0">
                                            <SimplePredicate field="x8" operator="greaterThan" value="0.2978949397802353"/>
                                        </Node>
                                    </Node>
                                    <Node id="69" score="17.0" recordCount="1.0">
                                        <SimplePredicate field="x1" operator="greaterThan" value="1.3876977562904358"/>
                                    </Node>
                                </Node>
                            </Node>
                            <Node id="70" recordCount="15.0">
                                <SimplePredicate field="x9" operator="greaterThan" value="0.7724656462669373"/>
                                <Node id="71" recordCount="13.0">
                                    <SimplePredicate field="x12" operator="lessOrEqual" value="0.8831941485404968"/>
                                    <Node id="72" recordCount="9.0">
                                        <SimplePredicate field="x10" operator="lessOrEqual" value="1.2061713337898254"/>
                                        <Node id="73" recordCount="3.0">
                                            <SimplePredicate field="x1" operator="lessOrEqual" value="0.4248535633087158"/>
                                            <Node id="74" recordCount="2.0">
                                                <SimplePredicate field="x5" operator="lessOrEqual" value="-0.5358509197831154"/>
                                                <Node id="75" score="8.0" recordCount="1.0">
                                                    <SimplePredicate field="x7" operator="lessOrEqual" value="-0.24580326676368713"/>
                                                </Node>
                                                <Node id="76" score="7.0" recordCount="1.0">
                                                    <SimplePredicate field="x7" operator="greaterThan" value="-0.24580326676368713"/>
                                                </Node>
                                            </Node>
                                            <Node id="77" score="4.0" recordCount="1.0">
                                                <SimplePredicate field="x5" operator="greaterThan" value="-0.5358509197831154"/>
                                            </Node>
                                        </Node>
                                        <Node id="78" recordCount="6.0">
                                            <SimplePredicate field="x1" operator="greaterThan" value="0.4248535633087158"/>
                                            <Node id="79" recordCount="3.0">
                                                <SimplePredicate field="x10" operator="lessOrEqual" value="0.2710121423006058"/>
                                                <Node id="80" score="13.0" recordCount="1.0">
                                                    <SimplePredicate field="x8" operator="lessOrEqual" value="-0.7133800834417343"/>
                                                </Node>
                                                <Node id="81" recordCount="2.0">
                                                    <SimplePredicate field="x8" operator="greaterThan" value="-0.7133800834417343"/>
                                                    <Node id="82" score="13.0" recordCount="1.0">
                                                        <SimplePredicate field="x7" operator="lessOrEqual" value="-0.6232868582010269"/>
                                                    </Node>
                                                    <Node id="83" score="14.0" recordCount="1.0">
                                                        <SimplePredicate field="x7" operator="greaterThan" value="-0.6232868582010269"/>
                                                    </Node>
                                                </Node>
                                            </Node>
                                            <Node id="84" recordCount="3.0">
                                                <SimplePredicate field="x10" operator="greaterThan" value="0.2710121423006058"/>
                                                <Node id="85" recordCount="2.0">
                                                    <SimplePredicate field="x5" operator="lessOrEqual" value="2.7043725550174713"/>
                                                    <Node id="86" score="13.0" recordCount="1.0">
                                                        <SimplePredicate field="x11" operator="lessOrEqual" value="0.6658362122252584"/>
                                                    </Node>
                                                    <Node id="87" score="15.0" recordCount="1.0">
                                                        <SimplePredicate field="x11" operator="greaterThan" value="0.6658362122252584"/>
                                                    </Node>
                                                </Node>
                                                <Node id="88" score="15.0" recordCount="1.0">
                                                    <SimplePredicate field="x5" operator="greaterThan" value="2.7043725550174713"/>
                                                </Node>
                                            </Node>
                                        </Node>
                                    </Node>
                                    <Node id="89" recordCount="4.0">
                                        <SimplePredicate field="x10" operator="greaterThan" value="1.2061713337898254"/>
                                        <Node id="90" score="16.0" recordCount="1.0">
                                            <SimplePredicate field="x3" operator="lessOrEqual" value="1.0161867141723633"/>
                                        </Node>
                                        <Node id="91" recordCount="3.0">
                                            <SimplePredicate field="x3" operator="greaterThan" value="1.0161867141723633"/>
                                            <Node id="92" score="13.0" recordCount="1.0">
                                                <SimplePredicate field="x6" operator="lessOrEqual" value="0.26861849427223206"/>
                                            </Node>
                                            <Node id="93" recordCount="2.0">
                                                <SimplePredicate field="x6" operator="greaterThan" value="0.26861849427223206"/>
                                                <Node id="94" score="16.0" recordCount="1.0">
                                                    <SimplePredicate field="x3" operator="lessOrEqual" value="2.0565683245658875"/>
                                                </Node>
                                                <Node id="95" score="15.0" recordCount="1.0">
                                                    <SimplePredicate field="x3" operator="greaterThan" value="2.0565683245658875"/>
                                                </Node>
                                            </Node>
                                        </Node>
                                    </Node>
                                </Node>
                                <Node id="96" recordCount="2.0">
                                    <SimplePredicate field="x12" operator="greaterThan" value="0.8831941485404968"/>
                                    <Node id="97" score="12.0" recordCount="1.0">
                                        <SimplePredicate field="x7" operator="lessOrEqual" value="-0.6232868582010269"/>
                                    </Node>
                                    <Node id="98" score="14.0" recordCount="1.0">
                                        <SimplePredicate field="x7" operator="greaterThan" value="-0.6232868582010269"/>
                                    </Node>
                                </Node>
                            </Node>
                        </Node>
                    </Node>
                </TreeModel>
            </Segment>
            <Segment id="3" weight="1">
                <True/>
                <TreeModel modelName="decisionTree_Model" functionName="regression" missingValuePenalty="1.0">
                    <MiningSchema>
                        <MiningField name="x1" usageType="active"/>
                        <MiningField name="x2" usageType="active"/>
                        <MiningField name="x3" usageType="active"/>
                        <MiningField name="x4" usageType="active"/>
                        <MiningField name="x5" usageType="active"/>
                        <MiningField name="x6" usageType="active"/>
                        <MiningField name="x7" usageType="active"/>
                        <MiningField name="x8" usageType="active"/>
                        <MiningField name="x9" usageType="active"/>
                        <MiningField name="x10" usageType="active"/>
                        <MiningField name="x11" usageType="active"/>
                        <MiningField name="x12" usageType="active"/>
                        <MiningField name="x13" usageType="active"/>
                        <MiningField name="x14" usageType="active"/>
                        <MiningField name="x15" usageType="active"/>
                        <MiningField name="x16" usageType="active"/>
                        <MiningField name="x17" usageType="active"/>
                        <MiningField name="x18" usageType="active"/>
                        <MiningField name="x19" usageType="active"/>
                        <MiningField name="x20" usageType="active"/>
                        <MiningField name="x21" usageType="active"/>
                        <MiningField name="x22" usageType="active"/>
                        <MiningField name="x23" usageType="active"/>
                        <MiningField name="x24" usageType="active"/>
                    </MiningSchema>
                    <Node id="0" recordCount="56.0">
                        <True/>
                        <Node id="1" recordCount="23.0">
                            <SimplePredicate field="x3" operator="lessOrEqual" value="-0.2842903258278966"/>
                            <Node id="2" recordCount="15.0">
                                <SimplePredicate field="x1" operator="lessOrEqual" value="-0.36062465608119965"/>
                                <Node id="3" recordCount="13.0">
                                    <SimplePredicate field="x4" operator="lessOrEqual" value="0.615472212433815"/>
                                    <Node id="4" recordCount="12.0">
                                        <SimplePredicate field="x10" operator="lessOrEqual" value="-0.23253510799258947"/>
                                        <Node id="5" recordCount="7.0">
                                            <SimplePredicate field="x10" operator="lessOrEqual" value="-1.023823618888855"/>
                                            <Node id="6" recordCount="6.0">
                                                <SimplePredicate field="x5" operator="lessOrEqual" value="-0.5358509197831154"/>
                                                <Node id="7" recordCount="5.0">
                                                    <SimplePredicate field="x1" operator="lessOrEqual" value="-1.3234689235687256"/>
                                                    <Node id="8" recordCount="4.0">
                                                        <SimplePredicate field="x4" operator="lessOrEqual" value="-0.741722971200943"/>
                                                        <Node id="9" score="20.0" recordCount="3.0">
                                                            <SimplePredicate field="x9" operator="lessOrEqual" value="-1.181418001651764"/>
                                                        </Node>
                                                        <Node id="10" score="19.0" recordCount="1.0">
                                                            <SimplePredicate field="x9" operator="greaterThan" value="-1.181418001651764"/>
                                                        </Node>
                                                    </Node>
                                                    <Node id="11" score="25.0" recordCount="1.0">
                                                        <SimplePredicate field="x4" operator="greaterThan" value="-0.741722971200943"/>
                                                    </Node>
                                                </Node>
                                                <Node id="12" score="19.0" recordCount="1.0">
                                                    <SimplePredicate field="x1" operator="greaterThan" value="-1.3234689235687256"/>
                                                </Node>
                                            </Node>
                                            <Node id="13" score="23.0" recordCount="1.0">
                                                <SimplePredicate field="x5" operator="greaterThan" value="-0.5358509197831154"/>
                                            </Node>
                                        </Node>
                                        <Node id="14" recordCount="5.0">
                                            <SimplePredicate field="x10" operator="greaterThan" value="-1.023823618888855"/>
                                            <Node id="15" recordCount="3.0">
                                                <SimplePredicate field="x12" operator="lessOrEqual" value="0.8831941485404968"/>
                                                <Node id="16" recordCount="2.0">
                                                    <SimplePredicate field="x5" operator="lessOrEqual" value="-0.5358509197831154"/>
                                                    <Node id="17" score="26.0" recordCount="1.0">
                                                        <SimplePredicate field="x2" operator="lessOrEqual" value="0.9884482026100159"/>
                                                    </Node>
                                                    <Node id="18" score="28.0" recordCount="1.0">
                                                        <SimplePredicate field="x2" operator="greaterThan" value="0.9884482026100159"/>
                                                    </Node>
                                                </Node>
                                                <Node id="19" score="28.0" recordCount="1.0">
                                                    <SimplePredicate field="x5" operator="greaterThan" value="-0.5358509197831154"/>
                                                </Node>
                                            </Node>
                                            <Node id="20" score="28.0" recordCount="2.0">
                                                <SimplePredicate field="x12" operator="greaterThan" value="0.8831941485404968"/>
                                            </Node>
                                        </Node>
                                    </Node>
                                    <Node id="21" score="4.0" recordCount="1.0">
                                        <SimplePredicate field="x10" operator="greaterThan" value="-0.23253510799258947"/>
                                    </Node>
                                </Node>
                                <Node id="22" score="4.0" recordCount="2.0">
                                    <SimplePredicate field="x4" operator="greaterThan" value="0.615472212433815"/>
                                </Node>
                            </Node>
                            <Node id="23" recordCount="8.0">
                                <SimplePredicate field="x1" operator="greaterThan" value="-0.36062465608119965"/>
                                <Node id="24" recordCount="4.0">
                                    <SimplePredicate field="x5" operator="lessOrEqual" value="-0.5358509197831154"/>
                                    <Node id="25" recordCount="3.0">
                                        <SimplePredicate field="x2" operator="lessOrEqual" value="0.20135055482387543"/>
                                        <Node id="26" score="2.0" recordCount="1.0">
                                            <SimplePredicate field="x10" operator="lessOrEqual" value="-0.7360823303461075"/>
                                        </Node>
                                        <Node id="27" recordCount="2.0">
                                            <SimplePredicate field="x10" operator="greaterThan" value="-0.7360823303461075"/>
                                            <Node id="28" score="7.0" recordCount="1.0">
                                                <SimplePredicate field="x1" operator="lessOrEqual" value="0.12079747393727303"/>
                                            </Node>
                                            <Node id="29" score="9.0" recordCount="1.0">
                                                <SimplePredicate field="x1" operator="greaterThan" value="0.12079747393727303"/>
                                            </Node>
                                        </Node>
                                    </Node>
                                    <Node id="30" score="14.0" recordCount="1.0">
                                        <SimplePredicate field="x2" operator="greaterThan" value="0.20135055482387543"/>
                                    </Node>
                                </Node>
                                <Node id="31" recordCount="4.0">
                                    <SimplePredicate field="x5" operator="greaterThan" value="-0.5358509197831154"/>
                                    <Node id="32" score="3.0" recordCount="1.0">
                                        <SimplePredicate field="x10" operator="lessOrEqual" value="-0.23253510892391205"/>
                                    </Node>
                                    <Node id="33" recordCount="3.0">
                                        <SimplePredicate field="x10" operator="greaterThan" value="-0.23253510892391205"/>
                                        <Node id="34" score="8.0" recordCount="1.0">
                                            <SimplePredicate field="x1" operator="lessOrEqual" value="0.4248535595834255"/>
                                        </Node>
                                        <Node id="35" recordCount="2.0">
                                            <SimplePredicate field="x1" operator="greaterThan" value="0.4248535595834255"/>
                                            <Node id="36" score="14.0" recordCount="1.0">
                                                <SimplePredicate field="x6" operator="lessOrEqual" value="-0.5014210678637028"/>
                                            </Node>
                                            <Node id="37" score="13.0" recordCount="1.0">
                                                <SimplePredicate field="x6" operator="greaterThan" value="-0.5014210678637028"/>
                                            </Node>
                                        </Node>
                                    </Node>
                                </Node>
                            </Node>
                        </Node>
                        <Node id="38" recordCount="33.0">
                            <SimplePredicate field="x3" operator="greaterThan" value="-0.2842903258278966"/>
                            <Node id="39" recordCount="14.0">
                                <SimplePredicate field="x10" operator="lessOrEqual" value="0.1990768164396286"/>
                                <Node id="40" recordCount="11.0">
                                    <SimplePredicate field="x11" operator="lessOrEqual" value="1.1239315271377563"/>
                                    <Node id="41" recordCount="9.0">
                                        <SimplePredicate field="x7" operator="lessOrEqual" value="0.886647492647171"/>
                                        <Node id="42" score="8.0" recordCount="2.0">
                                            <SimplePredicate field="x8" operator="lessOrEqual" value="-0.7133800834417343"/>
                                        </Node>
                                        <Node id="43" recordCount="7.0">
                                            <SimplePredicate field="x8" operator="greaterThan" value="-0.7133800834417343"/>
                                            <Node id="44" recordCount="3.0">
                                                <SimplePredicate field="x7" operator="lessOrEqual" value="-0.6232868582010269"/>
